0 -0.41145 -0.0929518 0.0679521 -0.29425 0.301066 -0.224748 -0.226243 0.136894 -0.206072 0.0995686 0.177629 -0.0579284 0.0104662 0.280526 -0.177335 0.112905 -0.203065 0.427767 0.129169 -0.23398 -0.302497 -0.0476135 -0.239756 0.493274 0.200596 -0.181543 -0.264701 0.450166 -0.347653 0.095451 0.107064 -0.363989 0.344798 -0.335672 0.39184 -0.105955 0.24607 -0.211932 -0.305249 0.0328488 -0.224491 0.0879543 -0.511906 0.0507384 0.199824 -0.0577836 -0.0467024 0.438494 0.312392 -0.293153 0.4183 -0.352966 0.205036 -0.201469 -0.200032 0.0792855 -0.147408 0.413267 0.286609 -0.335627 0.195418 0.0722012 0.198517 -0.386797 0.263029 -0.0349875 -0.0764889 0.427527 0.275848 -0.394681 -0.307403 -0.041253 -0.0238055 -0.212737 0.117376 -0.235699 -0.00670178 -0.299886 -0.311009 0.0368615 0.196125 0.358376 0.161404 -0.509835 -0.18821 0.0744668 0.237112 -0.139495 0.0998521 -0.239743 -0.256067 0.108607 -0.104247 0.234802 -0.349174 -0.0472146 0.0293831 0.440293 0.181098 -0.307857 0.161405 -0.209774 -0.389298 -0.0653328 -0.214185 0.0771377 -0.316916 0.0521598 0.236369 -0.249759 -0.161335 0.487238 0.0663146 0.259442 -0.151238 0.378329 -0.226725 0.41562 -0.214982 0.0379409 0.0178167 0.270591 0.110993 -0.338078 -0.331938 -0.0113742 -0.230874 0.494753 0.246797 -0.203344 0.301249 -0.27681 -0.320067 0.0471126 -0.19226 0.49731 0.0221153 -0.120986 0.0381864 -0.438315 -0.0590516 0.400085 0.0715173 -0.208142 0.298838 -0.33045 -0.322429 -5.13555e-05 0.217945 -0.206395 -0.183399 0.0663924 -0.15321 0.462971 0.044268 0.275298 -0.153288 0.241778 0.452287 -0.0872673 -0.0481947 0.320672 0.388596 -0.195417 -0.251477 0.0561132 0.0433665 -0.452692 -0.0245432 0.370894 0.164137 -0.0716324 0.0377424 0.11225 -0.134085 0.303965 -0.225206 0.536969 0.367443 0.00418235 -0.0386025 -0.378221 0.209249 -0.428384 0.25027 -0.37278 -0.112924 0.413059 0.109962 -0.347517 0.053967 -0.207123 -0.217109 0.195019 0.239547 -0.353028 0.0151935 0.284932 -0.404729 -0.0572271 -0.119273 0.457324 0.208874 0.0622458 0.416826 -0.236483 -0.132004 0.489195 -0.142508 0.466149 -0.250137 0.4342 -0.348284 0.00223094 -0.0556135 0.440169 -0.0330201 0.362888 0.245954 -0.1711 0.258624 -0.12779 0.036857 0.376559 -0.140212 0.145492 0.304483 -0.0570668 0.217887 -0.274032 -0.211863 0.0691022 -0.307739 0.0720506 -0.139417 0.42018 -0.0793793 0.53613 0.180078 -0.321389 0.170268 -0.30272 -0.0372949 0.231212 -0.0557792 0.520863 -0.215841 0.0163934 -0.230785 0.486057 0.257472 -0.0835515 0.384035 -0.127822 -0.161014 0.115339 -0.179702 0.489436 0.403091 -0.241531 -0.225022 -0.0136599 0.276364 -0.103972 0.191036 -0.220804 -0.134648 0.46075 -0.141305 0.166488 0.150562 -0.314151 -0.114186 0.444801 -0.172021 0.445546 -0.126726 0.309925 0.273525 -0.312251 0.116984 -0.408529 -0.0914 0.401629 -0.177299 0.095119 0.0918337 0.297451 0.424877 -0.152038 -0.374467 -0.0187201 0.20748 -0.229645 0.323498 -0.3273 0.165213 -0.0116549 -0.304837 0.00833509 
1 0.0329346 -0.0190296 0.387912 -0.593218 0.0106367 0.150772 0.097371 0.0954529 0.0556124 0.012421 0.374855 0.371633 0.0383044 0.243456 0.356205 0.0954581 -0.0765479 0.179699 0.331381 0.213674 0.0284675 0.129399 0.0258358 0.0580497 0.0773023 0.0803273 0.427518 0.507903 0.0970428 0.0390932 -0.0288641 0.269112 0.0820517 0.486374 0.313862 0.196603 0.0659679 0.155488 0.231277 0.291048 -0.00981409 0.0301142 0.175495 -0.00828285 0.536008 0.312642 0.107743 0.0789338 0.222221 0.205944 0.149635 0.132652 0.115086 0.093254 0.232056 0.139591 0.244472 0.22121 0.288488 0.0832825 0.0979348 0.267782 0.18362 0.18743 -0.0354923 0.135964 0.378524 0.0296803 0.214683 0.492134 0.288942 0.437744 0.00405258 0.103494 0.054415 0.0723483 0.0977992 0.0012451 0.16167 0.150666 0.110947 0.0849383 -0.0297289 0.0377608 0.263995 0.242111 0.112559 -0.0384331 -0.0356801 -0.0580229 0.186925 0.411722 0.316592 -0.010057 -0.097203 0.477793 0.0718716 0.244733 0.0573286 0.341829 0.233726 0.16136 0.0881943 0.153001 0.0879445 0.438907 0.122002 0.0720802 0.187134 0.1713 0.526271 0.185084 0.0641883 0.25522 0.331789 0.44923 -0.0624434 0.19803 0.0515342 0.20606 
2 0.0790479 0.0110547 0.10978 0.282979 -0.0825485 -0.107807 0.106829 0.206298 0.0797037 0.060049 0.129202 0.124539 -0.0457777 0.147327 -0.0221023 -0.023883 0.119597 -0.0595031 0.0719526 0.00292122 0.0854903 -0.0910042 0.151027 0.0617585 0.106007 -0.0732307 0.0108314 0.0915433 0.118361 -0.00796279 -0.114704 -0.0997962 -0.0194102 0.039277 -0.100546 0.178509 -0.00498869 -0.00658883 -0.0627433 0.0648681 -0.0162623 0.0910631 -0.0474612 -0.0792058 0.193577 -0.00697674 -0.0748867 -0.103806 -0.0918416 0.0871618 0.100728 -0.0456564 0.00904169 -0.0899852 0.149693 0.114729 0.15577 0.184464 0.0534846 0.105515 -0.118325 0.133982 -0.150775 -0.104275 -0.0932565 -0.0611833 0.165225 0.0950381 0.16349 0.0417694 0.207873 0.262552 -0.16474 -0.0794655 0.122754 -0.091435 -0.0342762 0.0434104 -0.0859321 -0.0578605 0.0771378 -0.0289223 -0.139141 0.125137 0.204352 0.185012 -0.0381827 0.0718502 0.0557068 -0.0359168 -0.0787419 -0.0642693 0.0661276 -0.0842317 0.0515469 0.0164984 0.0376412 0.0158985 -0.0331374 0.116889 -0.00428353 0.0992753 -0.049674 0.017093 -0.0979984 0.239051 0.127642 0.0494976 -0.0227934 -0.0256979 0.20714 -0.137213 0.0886163 0.0432319 0.0797075 -0.0438204 -0.0600935 0.072919 -0.0773465 -0.0753222 
3 -0.207416 -0.177158 -0.134523 0.462862 -0.0203514 -0.0308439 -0.0652592 0.102691 -0.0234608 0.00858767 -0.0194427 -0.113758 -0.0419204 0.0482464 0.0231784 -0.161434 0.0274805 -0.211475 -0.116087 -0.221219 -0.152455 0.0165778 0.0658008 -0.0901887 -0.236389 -0.122322 -0.177571 0.0412904 -0.187286 -0.172829 -0.0111173 0.13761 -0.098159 0.0828449 0.00140582 -0.0831268 -0.158401 -0.127156 -0.209763 -0.0464065 -0.162236 -0.0442764 -0.0212486 -0.167608 0.102829 -0.00515053 -0.131554 0.0246823 0.017267 -0.0340218 0.0146336 -0.0687856 -0.189123 -0.111357 -0.107771 -0.0684729 0.0789161 0.076615 0.0288488 -0.048998 0.0277937 -0.0168747 -0.0934608 -0.0322706 -0.00905246 -0.0438075 -0.134602 -0.0931294 -0.0202287 0.0357331 -0.0964563 0.0354335 0.0315138 -0.172996 -0.196296 -0.103729 0.0223046 0.075394 0.0710679 0.0553931 -0.10734 0.0374472 -0.0944071 -0.184606 -0.146676 -0.0859124 -0.0143779 -0.10983 -0.00337813 -0.152661 -0.0716983 -0.029098 -0.101096 -0.182349 -0.213752 0.0488222 -0.0164491 -0.0725877 -0.185705 0.169469 0.0742782 0.0549315 -0.105172 -0.193773 -0.125479 0.0454619 -0.0503494 -0.0379585 -0.00157376 -0.123443 0.0428803 -0.136193 -0.174894 0.141096 -0.0886992 0.126807 -0.102654 -0.124875 -0.049586 -0.143136 
4 0.0125497 -0.0736808 0.213127 -0.243965 0.0202836 -0.0587433 -0.0386421 -0.219584 -0.118433 0.0918852 0.0491601 0.251637 0.0205791 0.0127537 -0.0873433 0.0206188 -0.16235 -0.0505359 0.313449 0.0352801 -0.131966 0.0913329 -0.175947 -0.150247 -0.0737934 0.032999 0.268101 0.264134 -0.174678 -0.130292 -0.0573592 0.131206 -0.221635 0.382022 -0.0479033 0.0423014 -0.220969 -0.208697 0.0787737 -0.0986434 -0.162772 0.000150194 -0.0645222 0.0070431 0.464461 0.289397 -0.0913822 -0.016467 0.0348766 -0.0947882 -0.151783 -0.152887 0.00733044 -0.121217 -0.0647899 -0.0953665 0.0262858 -0.0240723 0.184688 0.161695 -0.0391206 0.0645441 -0.0221737 -0.13885 -0.0352581 -0.0568507 0.218707 -0.0714766 -0.224333 0.0725565 0.138516 0.429173 -0.0130604 -0.050063 -0.165798 0.0552293 -0.159309 0.0383895 -0.134988 -0.18265 0.0190571 -0.21028 0.0546069 -0.186239 -0.0504593 0.0788018 -0.0452954 -0.18712 -0.14691 -0.195391 0.233813 0.281477 0.0119808 -0.0114337 -0.101142 0.126973 -0.219903 -0.0935653 0.0450977 0.402277 -0.0121793 -0.148393 -0.190427 -0.0415552 -0.0898178 0.212062 -0.207281 0.077957 -0.211456 -0.0312263 0.388918 -0.130137 0.0114161 0.0619173 0.437025 0.251784 -0.152192 -0.232274 -0.188736 0.0753073 
5 0.129971 -0.0925179 0.16204 -0.256341 -0.13538 0.0518833 0.0632001 0.0702931 0.0572982 0.113692 0.178279 0.140266 0.122085 -0.0147687 0.219452 -0.0873183 -0.0251815 -0.125711 0.315639 0.0631315 0.0814075 0.0392856 -0.138978 0.0869421 -0.0491461 0.141079 0.416267 0.36172 -0.0224488 0.0898019 -0.137528 0.245989 0.0477289 0.188864 -0.0232957 -0.0576481 0.0123663 0.0158523 -0.0253195 -0.000577471 -0.0300693 -0.104975 -0.147977 0.00656097 0.187677 0.35285 -0.0891475 -0.211806 -0.155196 -0.138511 0.097375 -0.130788 -0.116904 -0.0682569 0.000810616 -0.0541094 0.0690011 -0.0786573 0.279669 0.0224339 -0.0374244 0.182417 0.0887843 -0.0505252 0.0535511 -0.0894343 0.164699 0.0912166 -0.0385671 0.181846 0.268515 0.292675 -0.00642351 -0.0933275 -0.00611031 0.0555872 -0.150534 -0.145407 -0.0307774 0.0405129 -0.0669002 -0.0120057 -0.0727821 0.0664859 0.0633521 -0.0962468 -0.0872792 0.0748514 -0.185145 0.0676768 0.22854 0.0669438 -0.0220088 -0.0531992 -0.000173375 0.235331 -0.127845 -0.00884543 -0.0707021 0.279842 0.000107055 0.150115 0.0324331 -0.0607955 -0.0499926 0.235596 0.0139763 -0.108117 0.0346354 -0.157847 0.182977 -0.0310057 -0.0582627 0.202218 0.334308 0.0982897 -0.131251 0.0225035 -0.0739057 0.169622 
6 0.0808095 -0.0681453 0.0500852 0.264187 -0.0210873 -0.0138051 0.00302038 0.0124392 0.151197 -0.0117415 0.00445307 0.129701 0.146721 0.043541 -0.0511527 0.0922629 0.0806904 0.0431545 0.206445 -0.102963 0.134613 -0.0708042 0.119157 0.0591066 0.0560222 0.14407 0.204849 -0.0305575 0.0627814 -0.074867 0.148365 0.0939814 0.0070872 0.0788986 -0.118869 0.0469435 -0.143569 0.0856361 0.129296 0.123882 0.00790753 -0.0857177 -0.140084 0.139576 0.0503153 0.152499 -0.0755751 0.0403337 -0.162172 0.142298 -0.0365805 0.0439545 0.1366 -0.0740983 0.0880822 -0.0412277 0.162452 -0.0433683 -0.0623522 -0.0486794 -0.10681 -0.0743547 0.0653677 0.0233147 0.0413257 -0.0961648 -0.0749912 -0.0871869 0.0589868 0.00935862 0.133445 -0.00880408 -0.143902 0.128165 -0.0764432 0.0322756 -0.0933295 0.0927586 0.12777 -0.0822348 0.0990592 0.0924129 0.0467059 0.0218451 -0.0963187 0.0417272 -0.053615 0.00293746 0.0859357 -0.103618 0.11754 0.134342 0.179894 0.0507462 -0.0684741 0.189577 -0.029148 0.0225085 0.0726893 -0.026298 -0.0418484 -0.0158881 -0.14014 -0.0879514 0.126862 0.114224 0.089282 0.0568298 -0.108831 0.107803 0.159916 0.0981947 -0.0892023 0.164838 0.131327 0.0927874 0.0791417 -0.0610809 0.112111 0.171072 
7 -0.292931 -0.080262 -0.0597609 -0.252639 -0.274267 -0.318116 -0.20218 -0.204955 -0.0846664 -0.196147 -0.0364869 -0.0772509 -0.276932 -0.0419095 -0.172355 -0.319107 -0.146777 -0.217361 -0.112571 -0.0883784 -0.0923046 -0.116364 -0.206129 -0.276905 -0.0616114 0.00792612 0.389861 -0.00709328 -0.219212 -0.299374 -0.0883325 0.0703541 -0.0453008 0.166916 -0.0786161 -0.230651 -0.082101 -0.232566 -0.284568 -0.106284 -0.227996 -0.0553512 -0.2803 -0.292436 0.21542 0.0976539 -0.330069 -0.226134 -0.16707 -0.0957834 -0.0416747 -0.138856 -0.204251 -0.157304 0.00477321 -0.134619 0.0282917 -0.18389 0.0108972 -0.0905962 -0.221827 -0.0192983 -0.138865 -0.241943 -0.133493 -0.175231 -0.035495 -0.17586 -0.163919 -0.00466665 -0.0510382 0.268179 -0.0185177 -0.121141 -0.0765525 -0.0299843 -0.116062 -0.174205 -0.176568 -0.154683 -0.0851109 -0.257474 -0.190558 -0.0540203 -0.264857 -0.250413 -0.0619409 -0.0833386 -0.277288 -0.220117 0.0328682 0.0911258 -0.198218 -0.21206 -0.148362 -0.130243 -0.201272 -0.203862 -0.220103 0.149357 -0.207389 -0.220547 -0.1496 -0.236083 -0.167085 -0.000632692 -0.212614 -0.0704684 -0.303649 -0.0463901 -0.102909 -0.120181 -0.165429 0.0650231 0.116685 0.0487722 -0.0416566 -0.128122 -0.209354 0.031588 
8 0.122427 -0.137049 0.120381 -0.274603 0.0383206 0.090176 -0.127557 -0.0265906 0.0343935 0.00760363 0.0562799 0.250847 -0.0158026 0.0126479 0.136337 -0.0458282 -0.16476 -0.0988727 0.188049 -0.0861049 -0.0908213 0.0625193 0.089292 0.154644 0.0199264 -0.0855059 0.232006 0.216557 -0.0189959 0.0189723 -0.156634 0.0969135 -0.0735944 0.436513 -0.00616908 0.0930616 -0.113885 -0.022231 0.0173229 0.046631 -0.110729 -0.0508902 0.0691367 0.04644 0.514472 0.394973 -0.0713332 0.0774895 -0.0564772 0.0646064 -0.0203188 -0.0513998 -0.0337644 -0.202377 -0.0119049 0.0883839 -0.0147535 -0.0420379 0.171528 0.0546858 -0.114484 0.115953 -0.029852 -0.0800635 0.00667447 -0.17562 0.0250086 -0.178336 0.109394 0.269695 0.201851 0.43693 0.103873 -0.102804 0.0639619 0.10407 -0.057182 -0.0141706 -0.186368 0.129081 0.0562488 0.0034326 -0.025804 0.00523548 0.0536157 -0.103637 0.0668125 0.0142354 -0.0619614 -0.110651 0.185159 0.314193 0.0185584 0.0807639 -0.11426 0.363396 0.0136537 -0.0986444 0.0243469 0.31934 -0.0590114 0.0200315 0.0337104 -0.00764871 0.00290179 0.315117 -0.183235 0.0200985 0.0129897 -0.0919319 0.268831 -0.0869218 -0.189147 0.27006 0.45451 0.147472 -0.0775418 0.0654679 0.0730263 0.21421 
9 -0.137014 -0.00725783 0.0113578 -0.0162688 -0.223252 -0.0809639 -0.137542 -0.250667 -0.00330932 -0.214195 -0.0916457 -0.127108 -0.0463824 -0.22534 0.0894291 -0.0384846 -0.240341 0.00506106 -0.0219994 -0.199084 -0.199061 -0.0862839 0.0154744 -0.127972 -0.204912 -0.108098 0.677003 0.16691 -0.182814 -0.235013 -0.174115 -0.0200243 -0.0133987 0.178989 -0.180587 0.000963207 -0.0277664 0.00531647 0.0319878 0.0629078 -0.236879 0.0121929 0.0156153 -0.0364802 0.128435 -0.0455762 -0.186832 -0.224349 -0.0188996 0.019752 -0.2107 -0.0412921 -0.0116599 -0.0199611 0.0771144 -0.174458 -0.174326 -0.191537 0.10036 0.105143 -0.0950691 -0.0666021 -0.104635 -0.0686799 -0.156845 -0.0218864 -0.115912 -0.0268342 -0.2225 -0.107612 -0.151136 -0.0574733 -0.0458157 -0.0921715 -0.0977875 -0.180795 -0.21609 -0.0678232 -0.12195 -0.119544 -0.0794809 -0.0643722 -0.227606 -0.256331 -0.24301 -0.084289 0.028723 0.0152256 -0.068132 -0.00851873 0.153994 -0.0195632 -0.186606 -0.0876093 0.0489172 0.176998 -0.219142 -0.0477419 0.0529944 -0.0352894 -0.252593 -0.157489 -0.267029 -0.176166 -0.0967809 0.149936 0.0204724 -0.0466116 0.033089 -0.12094 0.0589328 -0.031504 -0.17415 -0.126154 0.172997 -0.0139897 -0.188197 -0.0676243 0.00587561 -0.116634 
10 0.106921 0.020701 -0.0153101 0.304499 -0.142414 -0.0720895 -0.147059 0.00614604 -0.126268 0.012675 0.0794055 0.152325 0.140529 0.107254 -0.119636 0.0113169 -0.108258 -0.146726 0.165974 -0.0190655 -0.141813 0.024697 -0.0221094 -0.0697156 -0.16355 0.109817 0.0771567 0.127424 0.0510545 0.125823 0.107317 0.142614 0.0329816 0.293805 -0.0554055 -0.0757809 0.0762459 -0.0490814 0.104276 0.0520047 -0.089591 -0.0754141 0.00224748 -0.000584308 0.0746486 -0.020338 0.112612 -0.187463 -0.218431 0.0145245 -0.00294663 0.138708 -0.0795463 0.00183296 -0.0396775 -0.126515 -0.0280129 0.0140142 0.144729 -0.0988573 -0.12674 -0.00788335 -0.0378689 -0.107247 -0.115399 -0.0776654 0.00781531 0.0401324 0.187926 0.212556 0.0900095 0.170477 -0.0831524 0.0406842 -0.0680269 -0.0919221 -0.104437 0.0538328 0.0525559 0.0768524 -0.129981 0.0336598 0.00533291 -0.0483117 -0.0521265 -0.0870153 -0.0835854 0.0793885 -0.118962 -0.153927 -0.0109782 -0.0717467 -0.00922725 0.00495864 -0.0430287 -0.0400868 -0.00733596 -0.126088 0.14457 0.0413018 0.17998 -0.0980294 -0.0441454 0.0594781 -0.127565 0.00303245 -0.0222474 0.0256409 0.126248 -0.076415 0.0895919 0.0416954 -0.0886045 -0.0377139 0.0933687 0.0720664 0.0878206 0.066312 -0.0222899 0.171185 
11 0.0616091 0.072833 0.215737 -0.286058 -0.00753139 0.202516 0.210646 0.261572 -0.0682224 -0.0825107 0.155393 0.126413 0.121131 0.142596 0.303509 -0.0168577 -0.0169791 0.056279 0.474384 0.215171 0.166856 0.00541056 -0.0714846 0.166464 0.121902 0.052268 0.399841 0.310875 0.0854931 0.097378 0.0898956 0.380199 0.127208 0.40254 0.077829 0.0804699 -0.0385146 0.113896 0.0300367 0.192407 -0.0355545 0.228519 -0.0412276 -0.14353 0.548587 0.393661 0.101294 0.0198292 0.0348084 -0.0002035 0.00561042 -0.055936 -0.00942046 -0.0709435 0.259784 0.024162 0.31476 0.122595 0.315918 0.107434 0.0245344 0.229511 0.116533 0.0638743 -0.0873069 -0.0717971 0.241645 -0.0154263 0.105358 0.230742 0.200413 0.539484 -0.0257007 -0.00185727 0.114892 -0.105843 -0.035908 0.143047 -0.0183757 -0.0115979 0.21676 -0.0316633 0.00783375 0.18599 0.277566 0.237865 0.0379452 -0.0835233 0.116845 0.0298227 0.118155 0.433802 0.245034 0.178442 0.0299633 0.410463 -0.0539351 0.136982 -0.0784592 0.374727 0.0832752 -0.010974 -0.0603307 0.192888 0.10569 0.351584 -0.0923119 0.0216049 0.0589241 0.102304 0.55342 0.102099 -0.10338 0.448103 0.568841 0.391625 0.173556 0.0339855 0.0461458 0.335827 
12 -0.149711 -0.214952 0.0792015 0.0150473 -0.0290159 -0.0523891 -0.101166 -0.113137 -0.157773 -0.189862 -0.0316572 -0.127147 -0.125357 0.0310222 -0.135771 -0.136743 -0.196937 -0.168078 0.0159471 -0.0702987 -0.204352 0.043954 0.0315329 -0.179737 -0.0278588 -0.0905383 0.673466 0.14647 -0.0919879 0.0228462 0.0159382 0.0240993 0.027255 0.148032 0.0496159 -0.146119 -0.182898 -0.181247 -0.111938 0.0279199 -0.0354834 -0.187568 -0.133538 -0.234074 -0.00908053 -0.130969 -0.139853 0.0350824 -0.174198 -0.142465 -0.178378 -0.0196328 -0.18454 -0.229176 -0.00240569 -0.0733557 0.011345 -0.238858 0.134121 -0.0392697 -0.0855392 -0.0348964 -0.250206 0.00350811 -0.202479 0.0245372 -0.00232366 0.0410531 -0.204041 0.112917 -0.111526 0.136613 -0.0321986 -0.0506833 -0.0377658 -0.208952 -0.230244 0.0267067 -0.0257443 -0.164873 0.0920231 0.0449105 -0.132766 -0.0741618 -0.121891 0.00591129 -0.187325 -0.17629 -0.16803 0.0181609 0.0456307 -0.0165942 -0.125018 -0.194255 -0.0697527 0.0300675 -0.14423 -0.0984965 -0.0107268 0.141226 0.045742 -0.0967801 -0.0202606 -0.150674 -0.014536 0.0946542 -0.0629445 -0.175421 -0.103962 -0.246393 -0.00180501 0.0110423 -0.179709 -0.0460746 0.115251 -0.12916 -0.0528125 -0.222042 -0.0191393 0.0635681 
13 0.182159 0.00959109 -0.0377256 0.345555 -0.0177512 0.149612 0.219134 0.17335 0.00382399 0.0664348 0.230439 -0.00636736 -0.0689166 0.201623 0.211614 0.0165519 -0.0849721 0.124657 0.223445 0.199674 0.201739 -0.110496 0.108175 0.168246 0.112901 0.199337 0.156748 0.058698 0.0838479 0.114394 0.113912 0.0249646 -0.100798 0.204176 0.189476 0.0585931 0.132344 0.1243 0.0381716 -0.0769488 0.0644147 0.148113 -0.129049 0.0122766 0.165282 0.218804 0.184807 -0.0113412 0.120871 -0.0605435 0.149157 0.197893 0.00981202 -0.045339 0.0314131 0.0360539 0.1089 0.184607 0.205904 0.0851188 -0.0614386 0.0729359 0.0500468 0.107473 0.144044 -0.09262 0.0689951 -0.0146154 0.0987212 0.268333 0.258707 0.226657 0.0790515 0.151491 0.0904191 -0.0565916 0.156287 0.0163795 -0.0564131 0.135448 0.154807 0.18382 0.0543078 0.175298 0.125365 0.0491452 0.118768 0.0173832 0.0933851 0.00931144 0.0568216 0.0588263 0.0081556 0.135093 -0.0754493 0.249859 0.113394 -0.038724 0.0389902 0.150322 0.0274233 0.203683 0.0116336 0.0370211 0.0734023 0.188932 0.16922 -0.00412228 0.164504 0.0368932 0.096726 0.00702724 -0.048305 0.267703 0.241249 0.137842 0.0781739 0.0620127 -0.0262722 0.239735 
14 -0.22648 -0.0584238 -0.0720406 -0.080574 -0.0728029 -0.269038 -0.199959 -0.0267954 -0.158442 -0.188105 -0.0836732 0.0288202 0.0132455 -0.0480231 0.0991742 -0.0752086 -0.186236 0.00839888 -0.0373173 -0.0326988 0.0296512 -0.0206979 -0.220626 -0.209417 -0.170788 0.104339 0.608153 -0.184664 -0.175038 -0.0417097 -0.19425 -0.131367 -0.121368 -0.102824 0.0241028 -0.0556849 -0.0243243 0.0215684 0.00321964 0.0694631 -0.0536441 0.00742684 -0.139358 -0.244088 -0.179058 -0.0999962 -0.185511 -0.216285 -0.0517613 -0.0431694 -0.112866 -0.252076 -0.16661 -0.11185 0.0242271 -0.185577 -0.105151 -0.207006 -0.11671 -0.0569966 -0.189067 -0.0704705 -0.21627 0.050634 -0.114787 -0.234577 0.0175995 -0.0943944 -0.217019 0.0710382 0.0338116 -0.00290776 -0.100923 -0.14299 -0.181653 -0.0528494 -0.240319 -0.0937642 0.0397328 0.00922961 -0.169123 -0.0819555 -0.19155 -0.0909659 0.00571088 -0.0355265 -0.179301 -0.258365 0.00932658 -0.0962172 0.0498401 -0.0941654 -0.0476082 -0.257146 0.0269634 -0.146938 0.0233776 -0.0506611 0.00251154 -0.069304 -0.184871 -0.194842 -0.106375 0.0160838 -0.0345099 -0.0464329 -0.239402 -0.173949 -0.190284 -0.12403 -0.0709655 -0.081944 -0.155215 -0.0874374 -0.077596 0.0719101 -0.176826 -0.14504 -0.181983 -0.180396 
15 -0.181855 -0.171948 -0.0331335 -0.256733 -0.194738 0.00623239 -0.0849025 -0.262764 -0.109725 -0.0291397 0.0304621 0.0428025 -0.160104 -0.209836 -0.0318518 -0.192393 -0.0236319 0.0019513 0.10695 0.0744675 -0.138838 -0.165738 -0.0772864 -0.198861 -0.202937 0.0660023 0.173918 0.259153 -0.0209623 -0.242755 -0.0294569 0.139003 -0.0831561 0.145297 -0.0125108 -0.014232 -0.145505 -0.135035 -0.0477597 0.00801447 -0.145979 -0.132465 -0.27087 -0.225881 0.38799 0.228383 0.00775932 -0.063671 -0.23571 0.0582849 -0.104234 -0.0901885 -0.216684 -0.0626453 0.0789801 -0.0564925 0.0631381 -0.00664857 0.217334 0.0811389 -0.00940224 -0.0141222 -0.240687 -0.101809 0.0512841 -0.170227 0.0377818 0.0193705 -0.186846 0.289799 0.0562339 0.374295 -0.123012 -0.0503344 -0.0499875 -0.201195 -0.173821 -0.107533 -0.238279 0.0309024 0.0909738 -0.0426595 -0.194031 -0.0485733 -0.174833 -0.184394 0.0249851 -0.107456 -0.0128986 -0.230702 -0.0523179 0.10485 0.0675101 -0.0956393 -0.133709 0.115381 -0.095151 -0.128307 -0.130091 0.320336 -0.0402473 -0.259275 -0.0259402 0.0163232 -0.172646 0.355244 0.00687854 -0.0510743 -0.0570826 -0.0451707 0.279151 -0.132866 -0.0919264 0.158254 0.351739 0.209635 -0.00749414 -0.00348473 -0.041173 0.0964035 
16 -0.0187878 -0.12157 -0.170553 0.272971 0.0325037 0.0185094 0.0423908 0.150612 -0.0514371 -0.241504 -0.0331766 0.0558253 0.0818682 -0.0755927 -0.0999449 -0.114133 -0.155173 0.0647745 -0.0592494 -0.177106 -0.0617914 -0.222691 -0.112545 0.0487028 -0.0144069 0.0378297 -0.0806299 0.140199 -0.0344104 -0.000597245 0.0230048 -0.147586 -0.122213 0.119709 0.0370076 0.103725 0.0607559 -0.0584471 0.0365761 0.00636476 -0.159607 0.0859313 -0.0584212 -0.0430643 0.0805788 -0.0311325 -0.0489575 -0.0629932 -0.0191741 -0.144981 -0.12257 -0.135192 -0.139686 -0.0279641 -0.0569167 -0.0419874 -0.115238 0.017775 -0.0696632 0.00732064 0.0250323 -0.11718 -0.0268178 -0.191399 -0.140718 -0.0545901 -0.0577378 -0.211891 0.0130166 0.00692221 -0.143312 0.153792 -0.192691 -0.13671 0.0124609 -0.219614 0.0525476 -0.063681 -0.0328268 -0.14892 -0.16227 0.0273355 -0.214804 -0.217054 0.149572 -0.172499 -0.0924211 0.0684707 0.033249 -0.144827 -0.1438 -0.0368474 -0.0789479 0.0614603 0.0582155 -0.0834661 0.0706822 -0.0187045 -0.106961 0.0910962 0.0969528 0.137384 -0.0366085 -0.10327 -0.0754189 -0.0370632 -0.130047 -0.186909 -0.0613381 -0.00267884 0.108385 -0.140916 -0.0559768 -0.0443014 0.0530093 0.124262 0.0402929 -0.0903511 -0.13893 -0.150356 
17 0.0348413 -0.153643 -0.0770298 0.27138 -0.0684684 -0.287617 -0.0686282 -0.0605081 -0.154067 -0.21553 -0.198219 0.0351182 -0.12139 0.00548988 -0.00637209 -0.19602 -0.148376 -0.224082 -0.170792 -0.277903 -0.217031 -0.0381352 0.0240455 -0.207225 -0.161633 -0.249386 0.000633302 0.00188837 -0.184974 -0.0535046 -0.239083 -0.0757853 -0.0015639 -0.103405 -0.181041 -0.0614304 -0.18613 -0.0827519 -0.176544 -0.0609892 -0.0437962 -0.0387018 -0.107197 -0.25605 -0.0698863 0.0624183 0.0573451 -0.111323 -0.277992 -0.153138 -0.114076 -0.0206232 -0.0695051 -0.26606 -0.256921 -0.0436457 0.00892598 0.0211293 -0.108666 -0.0585501 -0.0254796 -0.0696217 -0.0430527 -0.129713 -0.184334 -0.0263975 -0.107826 -0.227461 -0.196562 -0.0142166 -0.191115 0.0328588 -0.269329 -0.195037 -0.0254329 -0.165158 -0.125234 0.00282512 -0.102535 -0.113386 0.0122287 -0.00860787 -0.0270949 -0.125361 -0.0902234 -0.119028 -0.144146 -0.0236192 -0.04352 -0.224519 0.0389308 -0.0696644 -0.177583 -0.141901 -0.275162 -0.147781 0.0219442 -0.259901 -0.101054 -0.103339 -0.00275121 0.0327486 -0.0801138 -0.219149 -0.169239 -0.00288783 -0.219301 -0.201844 -0.0228746 -0.0518636 -0.0743687 -0.128372 -0.110127 -0.0168427 -0.13523 -0.191199 -0.207842 0.0169712 -0.222025 0.0552614 
18 -0.184949 -0.0635352 -0.166813 0.376456 -0.0639464 -0.1692 -0.189436 0.0308736 0.0249551 -0.0486682 -0.183886 0.0308938 0.0107839 -0.17262 -0.130998 -0.0120479 0.0476499 -0.169434 -0.0822367 -0.153401 -0.176784 -0.209768 0.0244552 -0.0581114 0.00891218 -0.0866299 -0.0449937 0.0528749 -0.0710423 -0.16573 -0.179349 0.0495898 -0.0150957 -0.168273 -0.018706 -0.221559 -0.133307 -0.00674075 -0.0317237 -0.0447162 -0.0182185 0.0827765 -0.0236088 -0.205825 0.0407427 0.120694 -0.0971128 -0.0576124 -0.104766 -0.0631002 -0.186702 -0.181614 -0.0730988 -0.151017 -0.160231 -0.139055 -0.013701 -0.137764 -0.123906 -0.13241 -0.179041 0.0233647 -0.0563841 -0.230952 -0.209434 -0.240927 -0.157352 -0.0624172 -0.152797 -0.0131704 -0.0513322 -0.0967837 -0.103694 -0.168235 0.0138805 -0.217176 -0.203481 -0.134366 -0.221501 -0.0359779 -0.0441393 -0.2124 0.0174317 0.0168574 0.0257643 -0.123517 -0.0037693 -0.126867 -0.0661779 -0.0204394 -0.255441 -0.124013 -0.233422 0.00250908 -0.100592 -0.0502219 -0.0292526 -0.0501285 -0.159413 -0.108362 -0.174658 -0.0500732 -0.265583 -0.250209 -0.145291 0.0768426 -0.0450344 -0.191145 -0.231654 -0.245973 -0.0896982 -0.013049 -0.173631 -0.147249 -0.155643 -0.0555305 -0.20547 -0.132711 -0.207605 -0.0772291 
19 -0.0507512 0.0821842 -0.0580365 0.303868 -0.0275279 -0.155381 -0.0366547 0.121946 -0.0497129 -0.0705825 -0.102868 -0.0770266 0.018568 0.0602107 0.126813 -0.121083 0.124535 -0.103618 0.109174 0.0795888 -0.0500565 -0.0811427 0.135943 0.0293993 -0.0511728 -0.129109 0.0794242 -0.0171428 0.0860912 0.127975 -0.174109 0.0202806 -0.0494847 -0.0687962 -0.0867592 0.0659585 -0.133155 -0.0728865 0.0356574 -0.0892694 0.0701462 0.0724595 -0.192344 0.0365998 0.134472 0.150257 0.111086 -0.0282881 -0.0971948 -0.13267 0.0359953 -0.0555797 -0.136672 -0.0946318 -0.11146 0.11421 0.0839582 0.0304467 -0.0734251 -0.0913917 -0.109798 -0.00852486 -0.0436297 -0.0754642 0.0133318 -0.131615 -0.0392494 -0.052546 0.194706 0.00823033 -0.0206778 0.131785 0.0792773 -0.119457 0.0927479 -0.145017 -0.049872 -0.0527267 0.0465593 -0.0397788 -0.032697 0.0784948 -0.0718689 -0.144622 0.144811 -0.0906702 -0.126986 -0.00715801 0.0289806 -0.182457 0.0342833 -0.105176 0.00489818 0.139797 0.0676779 0.0911943 0.0566435 -0.061905 0.0455806 0.0829225 0.151099 -0.09061 -0.165527 -0.0850063 0.125434 0.00311686 -0.154071 -0.159457 0.106498 0.0055826 -0.0679135 0.108002 0.0929657 0.00312684 0.0734633 -0.0944225 -0.124554 0.102097 -0.127715 0.0416696 
20 -0.0545433 0.164911 0.22843 -0.46324 -0.105724 0.100669 0.0775289 0.161949 0.0826585 0.135738 0.247755 0.281444 0.060094 0.212271 0.107839 0.260354 -0.0666157 -0.0099095 0.196409 0.0683315 0.0978035 -0.0407039 0.13351 0.0521441 0.0328424 0.0390481 0.302328 0.189168 0.200943 0.167393 0.147672 0.0747338 0.0182859 0.254466 0.0762164 0.0961249 -0.110682 -0.13621 0.150469 0.0438288 0.0467252 0.155286 -0.112335 0.0479638 0.638555 0.308614 0.031439 -0.0751719 -0.0766285 0.175693 0.00569755 0.171518 0.0472623 0.021078 0.153199 -0.0962342 0.136103 0.0186177 0.366837 0.234391 -0.0261268 0.262562 0.0899399 0.173536 -0.138874 0.0800426 0.290356 -0.073571 -0.0131836 0.358132 0.221562 0.317316 0.188815 -0.125644 0.101592 0.0457279 0.0266274 0.0522605 0.105431 0.135881 0.130638 0.162731 -0.0411181 0.0500269 0.236491 0.0945659 0.0733822 -0.0117373 0.126429 -0.010864 0.108217 0.120721 0.212799 -0.0446926 0.0341241 0.22249 0.138434 0.157076 0.0733884 0.425111 0.0245386 -0.0130037 -0.0558793 0.150813 0.0698966 0.467137 0.153178 -0.0167773 0.0514033 -0.0630569 0.295262 -0.141503 0.02517 0.224143 0.483511 0.167591 0.123403 0.186936 0.0590345 0.144565 
21 0.118595 0.163963 0.0802552 -0.306111 -0.0876863 0.00734194 0.107474 0.191642 -0.0915086 0.0227953 0.102148 0.0594468 0.164968 0.0551356 -0.045615 0.0444177 -0.0596812 0.111171 0.186536 -0.0514853 0.0452045 0.0650596 0.180546 -0.0161782 0.0292354 -0.111273 0.34508 0.326395 -0.0334007 0.0272903 0.118098 0.117806 -0.099809 0.262088 0.076724 0.0802388 -0.0649925 -0.0352198 0.161255 -0.0372287 0.0115969 0.242627 -0.0952024 0.00159902 0.616756 0.196749 0.19249 0.138033 0.0216288 -0.0475104 0.0269603 0.24472 0.141173 -0.150835 0.133778 0.0394935 0.0366918 0.0711607 0.0476828 -0.0917543 -0.0117461 0.219185 0.0970672 0.0757334 0.0853246 -0.0632655 0.200615 -0.148043 0.107523 0.333914 0.113545 0.279581 0.155565 0.0307879 0.166132 0.0648719 0.13923 0.148499 0.0643715 0.19406 -0.0946368 0.190458 -0.116041 0.0921122 0.256775 -0.0203467 0.0867305 0.112855 -0.0828123 0.00361726 -0.0150431 0.177018 0.12144 0.172045 0.0267282 0.146846 0.209939 0.109613 -0.0355263 0.406971 0.0686673 0.0452274 -0.171987 0.121852 0.12549 0.424426 0.0247032 0.109362 -0.0129669 -0.0677022 0.164538 0.0231981 0.105421 0.134127 0.227548 0.11173 0.0847493 0.193728 -0.149156 0.192076 
22 -0.12153 -0.0201364 -0.0447769 0.022264 0.0444077 -0.00127464 -0.0457011 -0.0368937 0.0385315 -0.19375 0.0437665 0.163753 -0.0753245 -0.191651 -0.0790608 0.0544754 0.00864487 -0.0611954 0.333235 0.0183568 -0.24462 -0.151742 -0.225898 -0.0900836 -0.00834534 0.00459033 0.0652292 0.242674 0.047577 -0.04364 -0.0352985 0.17674 -0.114824 0.347949 -0.124629 -0.0444822 -0.156107 -0.232535 0.102199 0.0658501 0.00514571 0.0434516 0.040314 -0.0405942 0.515693 0.260136 -0.0455021 -0.232408 0.00824692 -0.0357129 -0.144494 -0.108635 -0.146991 -0.231558 0.0748782 -0.153702 0.0526744 -0.146387 0.143902 0.100551 -0.188226 0.0901616 -0.11525 0.127892 -0.168462 -0.0328621 -0.0359086 -0.140836 -0.0635745 0.280296 -0.0482734 0.434259 -0.0867716 -0.232743 -0.177345 -0.182769 -0.118178 -0.0541347 -0.032741 0.0388826 0.0483565 -0.196463 -0.130306 -0.130911 0.021597 0.0989727 -0.217594 -0.104653 0.0288627 -0.2122 0.210447 0.210514 -0.0967167 -0.231973 -0.155643 0.328798 -0.23428 0.0402845 -0.214593 0.263005 -0.15849 -0.16871 -0.114928 0.14088 -0.0520924 0.164086 -0.0287264 0.0972042 0.0554699 -0.232387 0.233075 -0.0855314 -0.133361 0.293857 0.348955 0.0895081 -0.131068 0.0311236 -0.0186172 0.130989 
23 0.0558815 -0.0360741 0.0393566 0.256158 -0.0211423 0.142302 -0.00257428 0.07384 -0.0308311 -0.149959 -0.00702975 -0.0554292 0.17996 0.0430431 0.107448 0.180931 -0.094178 -0.0416733 -0.00110357 -0.0508329 -0.0721715 0.0493773 0.188649 -0.021481 -0.103592 0.0105124 0.178014 0.051841 0.0502706 0.096346 0.0396375 -0.0638049 0.0713647 0.135087 -0.0282182 0.0559464 -0.013664 0.0678586 0.0340586 -0.129117 0.0996623 0.0304883 -0.00821117 0.0466311 0.24344 0.104655 -0.106385 0.0929529 0.0518723 -0.124913 0.0181132 -0.0435529 -0.0573307 0.0309475 -0.0434867 -0.108444 0.146996 0.154779 0.0748914 0.137112 -0.100633 -0.0426838 0.0599711 0.0242215 -0.130334 0.00121073 -0.0732944 0.00840296 0.146021 -0.0295721 0.0972516 0.185686 0.0656617 0.0754929 -0.111601 -0.100998 0.0538488 -0.0299387 -0.0874301 -0.0635516 -0.10974 -0.0216368 -0.0380641 -0.0748587 0.199872 -0.0832262 0.0192449 0.15436 -0.0635307 -0.0597863 0.106731 0.0559741 -0.0357561 -0.00862079 -0.090693 0.132637 0.0123264 0.0937941 0.148957 0.0233237 0.0286655 0.143888 0.0753555 -0.019427 0.0370956 0.16977 -0.0201566 0.00202021 0.045007 -0.127873 0.044135 0.05451 -0.115507 0.221124 0.0776931 -0.0210372 0.0675412 0.114712 -0.0543284 0.0439198 
24 -0.187403 -0.2138 -0.135803 -0.0849479 -0.0310714 -0.219933 -0.10928 -0.0620593 -0.210495 -0.047284 0.0134376 0.0482414 -0.175757 -0.0326773 -0.002179 -0.120467 -0.186868 -0.0483244 0.0224625 -0.0254992 -0.276403 -0.0584929 -0.14103 -0.263427 -0.209467 -0.147279 0.694249 0.147534 -0.197915 -0.132382 -0.218262 -0.204972 -0.22312 -0.066638 -0.00856707 -0.226254 -0.150399 -0.0350231 -0.129577 -0.0416998 0.0161241 -0.0719133 -0.218512 -0.077903 -0.159573 -0.181501 -0.223528 -0.0453061 -0.275549 -0.151617 -0.0178157 -0.20412 -0.187119 -0.112746 -0.0463248 -0.0212825 0.00117406 -0.0715253 -0.134507 -0.188407 -0.271657 -0.151459 -0.286903 -0.145345 0.00817858 -0.02373 0.043191 -0.0271429 -0.252837 -0.101493 -0.0220103 -0.129679 -0.123878 0.0180987 -0.184377 -0.0371343 -0.136268 -0.260272 -0.0914808 -0.111409 -0.0997184 -0.157006 -0.0089307 -0.244517 -0.277965 -0.142348 -0.275739 -0.135727 -0.132562 -0.26111 -0.19505 -0.0207816 -0.0339092 -0.0355749 -0.149954 0.0955769 -0.154235 -0.102564 -0.0971952 -0.0435042 -0.255056 -0.147858 -0.269551 -0.0501035 -0.00752008 -0.0985626 -0.112202 -0.131211 -0.0528786 -0.191067 0.00902655 0.00942407 -0.0706596 -0.226293 0.0677828 -0.0411597 -0.220322 -0.204808 -0.162004 -0.0888533 
25 -0.137128 0.0417504 0.0113139 0.33885 0.0621128 -0.13843 0.0158301 -0.115565 -0.100332 -0.127076 -0.0926395 -0.00364707 0.0691995 0.101764 -0.00464714 -0.13079 -0.0455909 -0.161514 0.0118214 -0.12987 -0.0999294 -0.0220945 -0.0801322 -0.141912 -0.135532 -0.132287 0.114915 -0.116679 0.0160547 0.132731 0.0701092 -0.166221 -0.0174479 -0.0760083 0.0375978 -0.0497181 0.0530918 0.0698111 0.0473465 0.0466037 -0.0794816 -0.0914537 -0.162223 -0.0282385 0.031186 0.0358454 -0.0823827 -0.0515648 -0.0327715 0.0372392 -0.0735247 -0.121545 0.0924966 -0.0505663 -0.154207 0.0404983 -0.159412 -0.107137 -0.0774863 -0.191844 -0.179476 -0.157026 -0.021696 0.0166854 -0.190569 -0.0419972 0.0513277 -0.0321783 -0.0707125 0.112527 -0.0807103 0.120469 -0.217679 -0.0498752 0.0516658 -0.0138449 -0.0293184 0.0319481 -0.0233968 -0.0278718 -0.0633016 -0.0633573 -0.183912 -0.022688 -0.0427811 -0.0395252 -0.126467 -0.159685 -0.0773363 -0.212764 -0.0560543 0.0724796 -0.0855195 0.0476298 -0.180451 0.0365754 -0.0928387 -0.0294631 -0.0310084 -0.0958788 0.0982682 0.113123 -0.195398 -0.221379 -0.00266088 -0.0447962 -0.133311 -0.0548487 -0.14694 -0.110032 -0.0434544 -0.0202284 -0.181829 -0.0382305 0.104157 -0.00662231 -0.0760151 -0.0711395 -0.199371 -0.114144 
26 -0.175666 0.0390265 0.072017 0.473047 0.0715053 -0.0244234 -0.16295 -0.03227 -0.0633663 -0.149474 0.106956 -0.0464796 0.0691305 -0.127394 0.059874 -0.163484 -0.0432265 -0.0485088 0.0150187 -0.134197 -0.110433 -0.0492545 -0.108053 0.0261986 0.0474446 -0.124353 -0.059946 -0.145777 -0.0565535 0.111229 0.0730483 -0.174456 -0.187185 -0.0980425 -0.166882 -0.162218 0.0236994 -0.149306 -0.209583 -0.0879259 0.00793874 0.0812366 -0.167144 -0.0583127 0.0812503 0.0220598 -0.112868 -0.0469217 -0.0148735 -0.0293539 -0.0235428 0.0914165 0.0563524 -0.110325 0.0656446 0.0357428 -0.127755 -0.000527428 -0.0148994 -0.181157 -0.0670035 -0.181012 -0.034056 -0.15519 -0.138887 -0.228454 -0.172798 -0.0622073 -0.118322 -0.116263 0.046763 -0.0568201 0.00540954 0.0358113 0.0211531 0.0500714 -0.138105 -0.0376772 0.0500432 -0.135171 0.0436883 0.0527571 0.0552691 -0.100221 0.0171745 -0.141354 -0.186282 -0.128739 -0.0542924 -0.118086 -0.0734067 -0.0230069 -0.143048 -0.156229 -0.226136 0.0428682 -0.131397 -0.0522663 -0.00659773 0.0438609 -0.158886 0.0777859 -0.0236311 0.0271715 -0.104533 -0.0741578 0.0530196 0.0273425 0.0224635 -0.0124628 -0.15911 -0.0866082 -0.182519 0.0802958 0.063255 -0.154036 -0.00371128 0.0558692 -0.0753982 -0.0923407 
27 0.0605629 0.0310644 -0.108478 0.387976 -0.0394387 -0.0710706 0.0444245 -0.131233 0.0191208 -0.198409 0.10401 0.113988 -0.192584 -0.0426812 -0.013168 -0.0238451 -0.212641 -0.0370042 0.212144 -0.0193499 0.0354661 0.0232677 0.0212276 0.0905075 0.0152038 -0.158052 -0.147342 0.124667 0.0573437 0.0528202 -0.10593 0.156397 0.0398512 0.0412595 -0.114907 -0.0700423 0.00715579 0.0252922 -0.133024 -0.0728141 0.0392571 0.0700661 -0.194924 -0.160047 -0.0027814 0.169521 -0.0974033 -0.131129 -0.124914 -0.102506 0.000115984 -0.0066519 -0.0528935 -0.0606381 0.11715 -0.142702 -0.0564262 0.0478068 -0.059466 -0.156643 -0.1383 -0.10301 -0.179294 -0.0918846 -0.0615858 -0.00410398 0.100044 0.0364571 -0.111773 0.00340297 0.114325 0.0767841 0.0359876 -0.0981806 -0.120476 0.0389479 -0.0887588 -0.122728 0.00185735 -0.0140704 0.029425 -0.133996 -0.153714 -0.147151 -0.0735754 0.0312053 -0.0807424 -0.0549101 -0.136563 -0.0473581 -0.139985 -0.0584812 0.069157 0.0830308 -0.174661 0.0483649 0.00625734 -0.00120251 -0.0397328 -0.0376459 -0.110086 0.0837515 -0.0469878 -0.0543629 0.0415592 0.0329624 -0.206695 -0.0934783 -0.12548 -0.031087 0.199253 -0.0475009 0.0420672 0.0102027 0.165066 -0.0646188 -0.140808 -0.00872511 -0.0235632 -0.0201901 
28 -0.0872326 -0.110536 0.156726 -0.323131 -0.161829 0.0393803 0.0119385 0.158042 -0.120635 -0.0962132 0.317189 0.16737 0.038996 0.00245607 0.292992 0.169072 -0.01862 -0.0864635 0.400412 0.189332 0.141676 0.135976 -0.0476837 0.101684 0.0901901 0.191512 0.508601 0.405173 -0.0574935 -0.103299 -0.0388179 0.393259 0.0167887 0.379676 0.129461 -0.00119185 -0.161842 -0.0324999 0.00930848 0.0882812 -0.150353 0.0332086 -0.0441793 -0.018897 0.505389 0.515175 0.0785245 -0.00444142 -0.142066 0.179495 0.167554 -0.00418245 -0.09259 -0.127788 0.250548 -0.105483 0.100933 0.174946 0.214812 0.0806445 0.103918 0.151698 0.127986 0.13084 -0.100192 -0.0726816 0.305409 -0.0253955 0.00669497 0.287061 0.353547 0.454104 0.00499668 -0.0877236 -0.0632956 0.0546196 -0.0578117 -0.0326976 -0.0839799 -0.0900337 -0.0428578 -0.0833347 0.101398 -0.000469545 -0.0511072 0.116408 -0.0531384 0.0946827 0.124287 0.0255662 0.098257 0.279516 0.0954241 0.0592699 0.114811 0.201067 0.0891535 0.137768 0.0185894 0.40836 0.167468 0.185947 -0.0952051 0.123069 -0.0475991 0.314391 -0.0798262 0.068902 0.162051 0.107429 0.343278 -0.0577464 -0.147184 0.392826 0.446486 0.396497 0.0393527 -0.00775526 0.118699 0.196288 
29 -0.00924629 -0.0343711 -0.0314854 -0.0538995 -0.147672 0.0358577 -0.162734 -0.143772 -0.184024 -0.122578 -0.0707707 0.0839509 -0.187875 -0.125602 -0.00234806 -0.139296 -0.0241236 -0.0254845 0.0934925 0.0697521 -0.027545 0.0535991 -0.0796679 -0.201553 -0.00355547 0.0711609 0.47044 0.187321 -0.16403 -0.0528145 0.0434626 -0.0514479 -0.160866 0.0279194 -0.0488589 -0.147793 -0.108538 -0.0619102 0.02922 0.0218422 -0.0662066 -0.172462 -0.183852 -0.0663748 0.133326 0.126652 -0.234245 -0.233404 0.0165498 0.0914707 -0.237835 0.0279911 -0.109223 -0.054013 -0.0614554 -0.00630985 0.163262 -0.0148078 0.0414356 0.0719761 0.0205415 -0.0976 -0.095896 -0.0272381 -0.000917616 -0.205067 0.0347632 -0.11049 -0.076688 0.0936162 -0.0569309 0.148466 0.018464 -0.0789205 -0.0308854 -0.0996012 -0.0288173 0.0438925 -0.0361249 -0.245257 -0.0738089 -0.0524157 -0.0958411 -0.107113 -0.0571109 0.109574 -0.0361861 0.00273791 -0.170951 -0.0934331 0.200063 0.15437 -0.0397494 -0.050278 -0.0296717 0.00114986 -0.163565 -0.0815846 -0.128349 0.185621 -0.0198235 -0.180153 -0.136445 0.0598753 -0.206377 0.291296 -0.142287 0.0107975 0.0304645 -0.150213 0.0927883 0.0186393 0.0218873 0.159912 0.0712994 0.146435 -0.127958 0.0288203 0.0171506 0.189525 
30 -0.118933 0.0356129 0.0762792 0.426384 -0.0103491 -0.127127 -0.163861 0.110471 -0.118758 -0.107072 0.133366 -0.0797023 0.0617105 0.119856 -0.0233252 -0.0540781 0.0597295 -0.0338446 -0.121566 -0.12612 -0.00788464 -0.122215 -0.0681592 -0.158496 0.0585013 -0.016878 0.0316184 0.0103612 -0.136688 -0.0396374 -0.171219 -0.053839 -0.0421332 -0.0863624 0.0751996 0.0482521 -0.112204 0.0284309 0.0227836 -0.0949519 -0.108077 0.0252032 0.0358228 -0.0131101 0.108748 0.146267 0.0593398 -0.0567204 0.0230349 -0.12194 -0.182429 -0.0395306 -0.125136 -0.157483 -0.0602024 -0.1041 -0.151856 -0.0328401 -0.0602896 0.00323767 -0.0965569 0.0499052 0.0225782 0.0273993 -0.0350158 -0.226573 -0.0613747 -0.0396367 -0.0946089 -0.0436685 0.107449 -0.0278184 -0.0686937 -0.015444 0.0450356 0.0144119 -0.0713397 0.0224547 -0.151918 0.078338 -0.188381 -0.158236 -0.158398 -0.1358 -0.0762143 0.000996131 0.0416639 -0.134701 -0.162832 -0.167614 0.0150072 -0.108784 -0.113254 -0.1883 -0.131093 0.139979 0.0798307 -0.180355 -0.00206377 0.0854851 0.0368524 0.0467256 -0.230355 -0.078397 -0.00355405 0.151149 0.0415736 0.0228081 -0.109473 0.0512538 -0.0367413 0.053285 -0.0532372 -0.115858 -0.0534293 0.0187604 -0.172556 0.00658715 -0.039943 -0.0926807 
31 -0.0127902 0.112265 -0.186483 0.241197 0.0258965 -0.192771 -0.0953577 0.0448348 0.0505011 -0.0125428 0.0424717 -0.116866 0.133389 0.134702 -0.176451 0.0843266 0.0491021 -0.0697969 -0.085993 0.0697181 0.0303669 -0.0901413 -0.115192 -0.0828307 -0.16745 -0.125718 0.295967 -0.0202586 -0.131077 0.07509 -0.166712 -0.0892108 -0.00630633 0.0153803 -0.100588 0.0481044 -0.216768 0.031942 -0.0518793 -0.208237 0.101113 -0.0811976 -0.248424 0.078743 0.00139486 -0.0061953 0.10756 -0.0134215 -0.0563304 -0.152935 -0.0415356 -0.0554162 -0.0469843 -0.200598 0.00722561 -0.163777 0.0848524 -0.0266597 -0.167127 -0.117717 -0.0299554 -0.144776 -0.00923313 -0.0543394 -0.211285 -0.142718 -0.150992 -0.0298917 0.129585 -0.145512 0.0576176 -0.00826315 -0.183608 -0.000936684 -0.0676095 -0.034627 -0.0944334 -0.0137268 -0.149514 0.0977235 -0.179146 -0.118963 -0.0828546 0.0754009 -0.117122 -0.0116036 -0.126028 -0.204562 -0.0290843 -0.237113 -0.135266 0.0668194 0.0568223 -0.0545324 -0.033255 -0.184039 0.0325913 -0.0747715 -0.0630904 -0.022471 0.0203193 -0.0176289 -0.226168 -0.0180917 -0.0391635 -0.0180741 -0.106747 -0.0621052 0.111953 0.0403672 0.0584138 -0.179006 -0.0608464 -0.118069 0.00806799 0.0911185 0.106805 0.0410298 0.0458466 0.0868557 
32 0.0579751 -0.0261449 -0.0494656 0.431481 0.14712 -0.141234 0.0437542 0.202156 0.0342674 -0.0613203 0.138567 0.169521 0.0994839 0.111889 0.0852609 0.16084 -0.0703028 -0.0249593 0.0944792 -0.123808 0.16561 -0.0457664 0.00919068 -0.00503456 0.0346058 0.0494625 -0.00557798 0.0813226 0.117112 0.161671 0.0340708 0.0723588 0.0730331 0.195146 0.0796863 0.136248 -0.102396 0.0299427 0.101589 -0.0775792 -0.102717 0.036567 -0.140371 0.0373209 0.255027 0.221319 0.0465033 0.0463184 0.0940828 -0.0999915 0.127592 -0.0358455 -0.0536331 -0.164379 0.0285588 -0.0955226 -0.0216436 0.160217 0.159042 0.0465343 0.0254453 0.140086 -0.0702901 0.0175692 -0.00945545 -0.0661739 0.0989778 -0.0366003 -0.00231238 0.22628 -0.0354633 0.0764939 -0.120815 -0.0246468 0.0415744 0.0991409 0.0220649 0.0603954 0.0691948 0.0704277 0.0627998 0.0513265 -0.110606 -0.132455 0.174916 0.0786106 0.094174 0.0183751 -0.0660182 0.0111278 0.160976 0.174761 0.0492966 0.0946236 -0.148654 0.0433464 0.1491 0.0983819 -0.0591647 0.0348483 0.1575 0.0147272 -0.172102 0.0128501 -0.0148088 0.112525 -0.121849 -0.0782105 -0.0472641 -0.0209734 0.0347067 0.0933168 -0.0356843 0.0729851 0.153327 0.101126 0.158374 -0.0903968 -0.0766199 0.0185201 
33 -0.294314 -0.121537 -0.322402 0.274494 -0.119213 -0.201747 -0.230031 -0.272703 -0.137724 -0.174348 -0.0659406 -0.232149 -0.129113 -0.324449 -0.076951 -0.309589 -0.217649 -0.228517 -0.234374 -0.0999825 -0.128019 -0.250887 -0.191639 -0.317017 -0.039104 -0.174654 -0.0169361 -0.0912473 -0.338962 -0.272156 -0.151947 -0.239439 -0.226077 -0.127857 -0.199586 -0.0326249 -0.111485 -0.0530993 -0.0305557 -0.167204 -0.292737 -0.0533755 -0.0225698 -0.218174 -0.185872 -0.0538792 -0.147209 -0.305481 -0.285506 -0.162132 -0.111946 -0.292167 -0.0446978 -0.0705205 -0.161246 -0.142703 -0.107511 -0.323736 -0.245171 -0.256637 -0.215454 -0.0378642 -0.335083 -0.0426493 -0.262189 -0.281523 -0.137135 -0.14212 -0.185512 -0.249323 -0.259139 -0.16265 -0.0921965 -0.223635 -0.286734 0.0256472 -0.228494 -0.148542 -0.236175 -0.0971735 -0.101578 -0.15363 -0.251661 -0.017192 -0.248899 -0.0127126 -0.336386 -0.146206 -0.104816 -0.089894 -0.26566 -0.0551015 -0.132809 -0.205897 -0.208693 -0.0200654 -0.0764456 -0.267607 -0.150301 -0.240616 -0.0490858 -0.271572 -0.268331 -0.113928 -0.264834 -0.12152 -0.254374 -0.0267251 -0.178611 -0.0655016 -0.111697 -0.214624 -0.132396 -0.280202 -0.136637 -0.0485636 -0.192291 -0.270605 -0.261617 -0.216827 
34 -0.18861 -0.170287 0.0505574 -0.196407 -0.0243502 -0.263507 -0.0639043 0.0365874 -0.161284 -0.145616 0.15014 0.000915307 -0.1405 -0.210257 -0.15137 -0.175035 -0.0877076 -0.2444 0.150712 -0.162141 -0.0277519 -0.151746 -0.0430677 0.0181402 -0.0659176 -0.143756 0.507805 0.124825 -0.0934202 -0.199815 -0.163128 -0.0796156 0.0116151 -0.0666804 -0.177199 -0.12646 -0.0983206 -0.00778637 -0.0818983 0.0905843 -0.200265 -0.2389 -0.139702 -0.0455439 -0.0732705 0.152616 0.0362529 -0.183833 -0.132957 -0.0958517 -0.08533 -0.0597332 -0.233592 -0.130593 0.0408998 -0.214417 -0.137585 0.0318552 0.13421 -0.0571317 -0.195978 -0.13985 -0.120121 0.0252869 -0.191725 -0.183433 0.104438 -0.134255 -0.188063 0.063943 -0.0478872 -0.00159202 -0.144097 -0.0143786 0.011582 -0.193955 -0.0521643 -0.0164211 0.0251546 -0.195374 -0.0067464 -0.13041 -0.2484 -0.0344962 -0.151738 -0.0915555 -0.113653 0.0267272 -0.190919 -0.097153 0.153711 0.143494 0.013192 0.0333606 -0.116194 0.0955307 -0.193689 -0.156462 0.05143 0.155864 -0.213589 -0.14886 -0.237 0.00566095 -0.253248 -0.00894754 -0.0295875 -0.00559124 -0.160564 -0.0105539 0.0898232 -0.0626314 -0.106894 0.0415343 -0.00150076 0.151778 -0.0251012 -0.160256 -0.0021591 0.117632 
35 -0.0824393 0.017068 -0.0663807 0.383688 -0.153903 -0.110416 -0.0722799 0.11864 0.112394 0.00488071 0.0180688 -0.0220687 0.0866427 -0.0243895 -0.0702612 0.102321 -0.132521 -0.166691 0.0726804 0.0602656 0.0585476 -0.0518168 0.0689497 0.0961424 -0.080641 -0.100134 -0.190034 0.167987 0.0751633 -0.144669 -0.0352928 0.128617 -0.167698 0.0954103 0.0753005 -0.0962962 0.0221266 -0.0629637 0.016323 -0.169174 -0.159171 0.0449762 0.00366345 -0.131139 0.127477 0.0772507 0.0232067 -0.0109128 0.0185065 -0.0414928 0.00755196 -0.0624901 0.102915 -0.0765907 -0.00960845 -0.139849 0.0483837 -0.0587225 -0.0957041 0.0348739 -0.109605 0.1241 -0.175701 0.05701 -0.0139324 0.00462041 0.0254541 -0.190729 0.106922 -0.0726225 -0.0182022 0.226686 0.0347144 -0.0915473 -0.151763 -0.0321416 -0.0467069 0.0150614 -0.0964907 0.0761883 -0.152808 -0.0674742 0.0181026 0.0078369 -0.0161064 0.0883439 0.0207857 -0.124543 -0.220977 0.0241716 0.0703997 -0.0322031 0.00692752 0.0133762 0.0169125 0.0122613 1.09185e-05 -0.0140443 -0.0578692 0.0487091 -0.0203981 -0.159302 -0.090493 -0.0374967 0.00646872 0.0582819 -0.185171 -0.166517 0.0874946 0.0536989 0.194627 0.0525246 -0.186001 0.0339633 0.180399 0.0518898 -0.0205353 0.130647 -0.12116 0.0967886 
36 0.100287 0.118752 0.182996 -0.290559 -0.0349868 0.161225 0.185741 0.187207 -0.0308921 -0.00133331 0.233229 0.323101 0.123173 0.174541 0.0513879 0.0498089 -0.130801 -0.0287247 0.261906 0.126344 0.0176592 0.0531673 0.176753 0.169944 -0.0591941 0.186858 0.409426 0.323779 0.0393376 0.0781254 -0.0674089 0.329294 -0.0157442 0.502542 0.0978427 -0.0372047 -0.12281 0.0957107 0.102429 0.0741627 -0.0462583 0.273367 -0.011706 0.0898067 0.606455 0.551047 0.127671 -0.100493 -0.0188137 0.0439665 0.06094 -0.00146277 -0.108709 0.0309251 0.0300761 -0.0137885 0.262663 0.00540642 0.157327 0.161003 0.147885 0.161249 0.0426475 0.244659 -0.0960774 0.110854 0.102027 -0.148277 0.200094 0.491628 0.191673 0.476924 0.17338 -0.0191727 -0.141106 -0.05882 0.0158922 0.115508 -0.0121243 -0.0630508 0.0955802 0.0931752 0.0938663 0.133206 0.00421509 0.222156 0.0720539 0.0293935 -0.0774253 0.0961977 0.363149 0.297537 0.0215471 0.114302 -0.115389 0.387751 0.119712 0.178802 0.0254318 0.307368 0.194168 0.108551 0.106199 0.0120294 -0.106435 0.401961 0.153975 0.0461209 -0.0110599 -0.0662505 0.33017 -0.107426 0.0597023 0.347485 0.449242 0.446201 0.00871814 0.191467 -0.0917599 0.151794 
37 0.140988 0.145969 0.208481 0.274156 0.0608776 0.198383 0.0913464 0.0187123 0.203074 -0.022773 0.258421 0.0873478 0.0833326 0.152853 0.0897441 0.100224 0.0492609 0.133509 0.237205 0.227677 -0.0113079 0.0495096 0.178895 -0.0398097 -0.0935432 0.0968158 0.0457307 0.0408573 -0.0601915 -0.0103557 0.0848534 0.308101 0.155528 0.342433 0.105283 0.121597 -0.113819 0.00997466 0.177588 -0.0504004 0.078092 -0.000846998 -0.0276514 0.079246 0.113651 0.191336 0.135714 -0.0261964 -0.109026 0.0287231 0.012105 0.184913 0.133414 0.143698 0.172114 0.166394 0.0556932 0.0521084 0.114044 0.142772 -0.0313388 0.257347 0.000395973 0.24122 0.0073634 -0.0423308 -0.0188189 -0.0215268 -0.00469099 0.155677 0.0944206 0.161984 0.14329 -0.0821982 0.19385 0.0859706 -0.0712286 0.204881 -0.0384778 0.222332 0.202317 0.0726127 0.0115232 -0.0714271 0.186601 0.00819816 0.0946172 0.100114 0.0902094 0.0481023 0.105809 0.0394814 0.0925795 0.0687792 -0.0938676 0.0377636 0.202705 -0.058907 -0.0564749 0.21098 0.103743 0.00834942 -0.0244662 0.024208 0.190148 0.191848 -0.0878929 -0.100506 0.0428623 0.0160775 0.0753964 -0.0327314 -0.0794649 0.312823 0.0772449 0.198684 0.0953043 -0.0179169 0.174329 0.250607 
38 0.0924952 -0.0701532 -0.0708897 0.241404 -0.0883552 -0.110926 -0.0976583 0.175955 -0.0754877 -0.0471927 -0.00952835 0.0168494 0.0313488 0.18808 0.119326 0.127355 -0.125482 -0.0410316 0.0193691 -0.147423 -0.0817723 -0.124436 0.0244015 -0.017956 -0.0775257 -0.11425 -0.0240359 0.151733 -0.0961766 -0.056612 0.0230117 0.186113 0.119788 0.124579 -0.135827 -0.117034 0.0897717 -0.133284 -0.0929704 -0.136365 -0.0569263 0.0140957 0.0723354 -0.133702 0.265095 0.140915 0.00224536 -0.0337928 0.000170947 -0.15777 0.023903 0.0128259 0.0168354 -0.188599 -0.112568 -0.106073 0.0789155 0.180557 0.135159 -0.0345363 0.0956792 -0.0287435 0.0706308 0.117982 -0.109782 -0.0136336 0.113316 -0.111348 -0.0414209 -0.012436 0.083741 0.199079 -0.054276 -0.116872 -0.00397522 -0.0286991 -0.121624 0.146209 -0.0101227 -0.0676964 -0.119052 -0.0566375 -0.154297 -0.133849 0.109376 -0.128745 -0.06466 -0.0694463 -0.131674 0.0394867 0.0819806 -0.0685006 0.10029 -0.0735141 -0.158315 0.0126444 0.102483 0.070897 -0.034313 0.0444001 -0.0435656 -0.0088221 -0.0373823 0.0810298 0.0141837 0.070552 -0.18148 -0.069151 0.106337 -0.161967 0.201058 0.114895 0.0419223 0.0283015 0.200149 0.126291 -0.110996 -0.0285388 -0.168694 0.0333006 
39 0.0360221 0.0892234 0.0412267 0.189287 -0.0291575 0.0581972 0.0677178 -0.0788314 0.150223 0.0846308 0.0814752 0.000400563 0.157393 -0.00453476 0.075363 0.139825 -0.165768 0.0775822 0.228347 0.0555521 -0.0578951 -0.0617841 -0.0271027 0.135149 -0.11051 0.10951 -0.0890194 0.106221 0.0561336 0.070469 0.0150344 -0.0380975 0.0660839 0.106648 0.129749 0.0169397 -0.110647 0.100446 0.0637565 0.111318 -0.067993 -0.107323 -0.0367103 -0.130026 0.295327 0.145409 -0.0709874 -0.0993476 0.0563621 0.0549677 0.122471 0.0730504 -0.1291 0.0170952 0.143397 0.0953782 0.123433 0.177781 0.108014 -0.00739893 0.0780871 0.100221 0.0324971 -0.0377628 -0.188515 0.0825974 -0.0167669 -0.1393 -0.012454 0.0970651 0.0710816 0.186547 0.0650406 0.00462667 0.0684347 0.00234565 -0.135275 0.100732 0.146233 0.00142997 0.0534494 0.0604282 -0.0147909 0.0265258 0.0170834 0.0589425 -0.0458655 0.0794802 0.0698349 -0.0791323 0.0379043 0.0776652 0.0674067 0.177496 -0.103089 0.150288 0.0173039 0.0118429 -0.0928232 0.115952 0.00942921 -0.0786141 -0.0514809 -0.111817 -0.0181437 0.0819827 -0.106931 -0.0828863 0.0620204 0.0495923 0.0533662 0.0592498 -0.167292 0.235282 0.134724 0.177592 -0.0840248 0.0384818 -0.141961 0.087983 
40 -0.0862661 0.119817 0.101407 -0.397042 -0.0787587 0.0479316 0.0293455 0.180243 -0.0436326 0.0739994 0.275634 0.0711888 -0.00509911 0.0148418 0.092795 0.0825359 0.059944 0.101254 0.341296 -0.112806 -0.106578 0.080506 -0.0726672 0.0717754 0.0509612 0.0564425 0.292245 0.29682 -0.0634537 0.0132393 -0.026396 0.219957 0.103695 0.3343 0.0656209 0.111553 0.0442067 0.10912 0.109139 0.0885041 -0.0401573 -0.095697 -0.122969 -0.0451753 0.371573 0.286202 -0.0327874 -0.0947795 0.00145332 -0.0347595 -0.0389723 -0.0902435 -0.0832846 0.0566682 -0.0426194 -0.0844499 0.0749407 0.0256079 0.268876 0.0488238 -0.11634 0.0717175 -0.13309 -0.0998149 -0.104149 -0.141173 0.0870365 -0.0566514 0.123792 0.154546 0.163126 0.282346 0.0311958 0.0951751 0.0853798 0.0109442 0.0184104 0.126245 0.0790652 -0.001562 0.0694007 0.0338113 -0.153567 -0.0885527 -0.0855458 -0.0748753 -0.0432436 0.0433417 -0.107233 -0.0446752 0.0423838 0.0734963 0.00887931 0.0643024 0.0207448 0.322692 0.00771013 0.221848 -0.150544 0.372337 -0.0221444 0.128173 0.00208574 -0.00795781 -0.0401894 0.386519 0.104405 -0.0662189 0.0457668 -0.00773566 0.242062 -0.159652 0.0409135 0.117838 0.206486 0.0827943 0.127012 0.0639707 0.0829599 0.181766 
41 -0.220947 -0.0722026 -0.276783 -0.183655 -0.278548 -0.156109 -0.217172 -0.0524015 -0.0573482 -0.298067 -0.129264 -0.076358 -0.229512 -0.113189 -0.291016 -0.200796 -0.322949 -0.343869 0.0731358 -0.093427 -0.339052 -0.140398 -0.0938314 -0.362949 -0.298338 -0.101719 0.711793 -0.0704 -0.110536 -0.235214 -0.0675975 -0.166739 -0.20622 -0.0271786 -0.304403 -0.27348 -0.0521489 -0.204867 -0.0913121 -0.175575 -0.121599 -0.249815 -0.216341 -0.153566 0.282391 0.0978345 -0.246254 -0.0818034 -0.311816 -0.155663 -0.327926 -0.341898 -0.130108 -0.155652 -0.118089 -0.125153 -0.11534 -0.288431 -0.179528 -0.0903257 -0.0953079 -0.190364 -0.119117 -0.233406 -0.205104 -0.262636 -0.227171 -0.180489 -0.15678 -0.159896 -0.213563 0.124288 -0.225309 -0.129158 -0.280244 -0.281312 -0.348847 -0.239044 -0.264542 -0.201094 -0.177679 -0.331677 -0.132113 -0.250893 -0.160189 -0.0807692 -0.228116 -0.100187 -0.33099 -0.0846326 -0.03119 -0.0439257 -0.0890617 -0.134611 -0.136825 -0.068961 -0.16345 -0.223525 -0.237302 0.123245 -0.347351 -0.271051 -0.199578 -0.217031 -0.162252 0.0983129 -0.216122 -0.314212 -0.311325 -0.265599 -0.00708276 -0.337116 -0.334369 -0.0456972 0.18742 -0.127303 -0.314688 -0.258808 -0.239894 -0.10227 
42 0.0186507 -0.0382123 -0.0664141 0.453239 0.0537437 -0.0478582 0.0412919 -0.0443887 -0.105663 -0.0349759 -0.00235635 -0.118378 -0.0557565 -0.104649 -0.111356 0.00116585 -0.0791642 -0.0988158 -0.0475571 0.00543123 -0.136129 -0.0786493 -0.0903398 -0.117599 -0.231895 -0.108888 -0.186105 0.142833 -0.10028 -0.0608688 -0.0210176 -0.0971883 -0.118796 0.0458038 -0.0643686 -0.16613 -0.173743 0.0559936 0.056924 -0.0814523 0.019049 -0.0223168 -0.16198 -0.109589 0.176916 -0.106063 -0.186648 -0.0492997 -0.0631226 -0.0388225 -0.172807 0.0969466 -0.101962 -0.0178842 -0.148122 -0.0814896 0.0969504 0.0639908 0.0390339 -0.186118 0.0113819 0.0550375 -0.00967653 -0.0683459 -0.115877 -0.0820175 -4.2648e-05 -0.228144 0.146743 0.182292 -0.0673594 0.146582 -0.0327575 -0.216201 -0.0547286 -0.159807 -0.0729487 0.0283849 0.0259959 -0.222416 -0.0168929 0.00316643 -0.0586991 -0.22529 -0.0573218 -0.0798651 -0.0320523 -0.0378666 -0.140431 -0.0629317 -0.145293 0.0909835 -0.041195 0.00709848 0.0515389 -0.0012859 -0.173044 -0.0123552 -0.0525652 0.234121 -0.197751 -0.104964 -0.0360784 -0.0856994 0.0304622 0.0137454 0.0278386 -0.0784571 0.0523601 -0.11105 0.050237 -0.175661 -0.0284618 0.111058 0.098872 -0.103128 -0.0760504 -0.0969745 0.0474872 -0.0281227 
43 -0.0792118 -0.0350093 0.0577753 -0.30273 0.031597 -0.0383337 0.121456 0.119943 -0.143583 -0.0395945 0.216551 0.30732 -0.0899067 0.0737577 0.213384 0.13853 0.0238989 -0.134638 0.185508 0.0858528 0.0149125 0.0919656 0.0031012 -0.026453 -0.171073 0.112946 0.51974 0.173566 0.0377342 -0.150203 -0.13816 0.237127 -0.111093 0.304997 0.014803 -0.0594509 -0.115494 -0.137553 0.0166912 -0.112795 -0.103397 0.0229129 -0.120437 -0.111226 0.364044 0.297207 0.00280891 0.0225899 -0.0118378 -0.052585 -0.038443 -0.000728957 -0.166871 -0.207219 0.140785 -0.0527619 0.125009 -0.0510879 0.224816 0.136531 -0.0783835 0.150306 -0.139854 0.153855 0.0352622 -0.109296 0.190557 -0.220547 0.1583 0.249687 0.242699 0.268173 -0.0897642 -0.225181 -0.000247142 -0.146738 0.016284 0.0225588 -0.095157 0.0767255 0.0240408 0.0865533 0.0154402 0.0238967 -0.0751498 0.083252 -0.141004 0.00573342 -0.144594 -0.0212838 0.00921221 0.0524222 0.00916377 0.0503817 -0.00560677 0.323143 -0.122863 -0.0668551 -0.10142 0.336352 0.114792 0.0459257 0.0197508 -0.0426945 -0.17619 0.421133 -0.0638872 0.0421226 0.00583713 -0.161659 0.243974 -0.0477489 0.0623883 0.253264 0.361427 0.2236 -0.20194 -0.145626 0.0230857 0.193263 
44 -0.173752 0.033746 0.0104918 0.193041 -0.134434 -0.188207 -0.18654 -0.140772 -0.0537484 -0.0280425 -0.0433514 -0.135994 -0.141819 -0.129675 -0.0288043 -0.0683781 -0.169485 0.0180015 0.110149 -0.2087 -0.247519 -0.188923 -0.193121 -0.0990971 -0.16827 -0.0126635 -0.0900764 0.039182 -0.141898 -0.110492 -0.101596 -0.0165897 -0.225565 0.0100659 -0.184207 0.0395039 0.0185602 -0.0393287 -0.0263613 -0.247352 -0.0637228 -0.178907 -0.103032 -0.0658191 0.0490327 0.0903625 -0.194668 -0.0971063 -0.0415169 -0.194889 -0.23481 -0.215886 -0.0565794 7.93133e-05 -0.143482 -0.156278 -0.00494973 -0.214304 -0.073218 -0.0439369 -0.226416 -0.209237 -0.153015 -0.177324 0.0313813 -0.236605 -0.062059 -0.247289 -0.117047 -0.0505942 -0.116188 -0.131727 -0.170288 -0.178071 0.025139 0.0274345 -0.0622363 0.0299701 0.0382002 -0.136017 -0.18301 -0.24111 -0.0488699 -0.159624 -0.213948 -0.0423519 0.0430899 -0.0178898 -0.111968 -0.0924938 -0.176742 0.078691 -0.164933 -0.0867338 -0.176338 -0.140294 -0.157849 -0.0792798 -0.0182045 0.00738303 0.0547801 -0.225557 -0.00213244 0.00521881 -0.183808 -0.119221 -0.0671116 -0.143907 -0.169094 -0.188693 0.00379221 -0.108743 -0.0960629 -0.15845 0.052584 0.0914957 0.0348044 -0.184254 -0.111399 0.0553339 
45 0.103421 -0.048052 -0.0544864 0.284871 0.0271416 -0.0102468 0.106142 -0.00581428 0.109737 -0.157216 0.0405127 0.136688 0.015932 -0.0560015 -0.0980246 0.0221489 0.00550873 -0.129156 0.160738 -0.091544 0.0199261 -0.0350032 0.0453895 -0.0780219 0.0265463 -0.116462 -0.0596029 0.0255295 0.0195581 -0.105173 -0.0126551 -0.0400718 -0.0734806 0.010647 -0.0486451 -0.0241902 -0.138862 -0.177636 -0.0439567 -0.17808 -0.0683841 0.14302 -0.0156155 0.0196181 0.315596 0.0690286 0.0121689 -0.0781699 0.0685657 -0.158006 0.0487482 0.0672057 -0.164833 0.0625908 -0.154936 0.09216 0.004132 0.0744754 0.0810543 -0.143098 0.0734453 0.0330953 -0.0687395 -0.0854883 -0.110123 -0.183887 -0.0734557 -0.0703088 0.178374 0.0481421 0.0559132 0.0876147 -0.10363 -0.0773405 -0.12087 -0.133177 -0.0580364 -0.0560188 -0.128389 -0.155999 -0.1616 -0.00865164 0.0841758 -0.186352 0.00122869 -0.0329948 -0.126375 0.0375763 0.0071796 -0.0758112 0.0090542 0.159584 0.0518113 -0.00463839 -0.0272013 0.179352 -0.0179404 0.0367503 0.0179337 0.181751 -0.0164947 0.0379984 -0.0474645 0.0783036 -0.0343239 0.0511276 0.0285226 -0.0466523 0.0206646 -0.184333 0.0107325 0.0206851 -0.171064 0.0419117 0.134583 0.0629613 0.00915161 -0.0662828 0.0710555 -0.115462 
46 -0.0192732 -0.0460417 0.308969 -0.332002 -0.160522 0.122585 0.0846964 0.0926616 -0.169544 -0.00932684 0.127471 0.295432 -0.0230168 -0.107202 0.165507 0.161067 -0.0800226 -0.0754429 0.322039 0.0551613 -0.141061 0.0506986 0.0489011 -0.0145446 -0.133942 -0.097726 0.5362 0.295644 0.00319968 0.0396127 0.0385696 0.224888 -0.159839 0.221751 0.131798 0.0917149 -0.064996 -0.158552 0.146813 -0.079982 -0.0919455 0.0742902 -0.183955 -0.00659848 0.542571 0.500742 -0.0085434 0.0761134 0.0840506 0.0110299 0.116827 -0.115248 -0.0485584 -0.152271 0.22534 -0.0456974 0.0242126 0.105587 0.174237 0.242774 -0.124491 0.192968 0.110598 -0.0376316 -0.118548 -0.117967 0.081585 -0.0146441 -0.0472508 0.252334 0.0271613 0.257306 -0.128297 -0.193396 0.0264725 0.00531697 0.122876 0.0106496 0.0916409 -0.0402731 0.128623 -0.0859366 -0.0707284 -0.0139445 0.0522738 0.0808727 -0.00274903 -0.0796409 -0.0560136 -0.0989026 0.0984607 0.262793 -0.0129869 0.0342683 -0.159617 0.297946 0.0854213 -0.0111874 -0.167155 0.243069 0.153009 0.14679 -0.0137435 -0.0368771 -0.00842754 0.332865 -0.140719 0.0673533 0.0864855 -0.0355588 0.216666 -0.126559 -0.0899988 0.381367 0.252181 0.130111 -0.0751941 -0.0169635 -0.167412 0.330041 
47 -0.114952 0.00240666 0.0648458 -0.135326 -0.0479958 -0.110418 -0.150784 -0.20243 0.0203121 -0.0366702 0.0570709 -0.0395173 -0.211276 -0.0599438 0.142582 -0.114226 -0.106013 -0.0405049 0.305263 -0.0327805 -0.207361 -0.171257 -0.160133 -0.00201495 -0.253384 -0.0172678 0.327834 0.153892 -0.042161 -0.130563 -0.0683275 0.105743 -0.0314929 0.350588 0.0215411 -0.228725 -0.018806 -0.07042 0.0268706 -0.0356277 -0.232789 -0.0165081 -0.226517 -0.0867136 0.335154 0.205585 -0.122764 -0.127528 -0.145215 -0.0882039 -0.05399 0.0317431 -0.187462 -0.145896 0.128354 -0.0664302 0.122772 -0.0823383 0.270319 0.184345 -0.218426 -0.0723755 0.0420319 -0.0604176 0.00857951 -0.00331355 -0.0346646 -0.176438 0.0527437 0.283603 0.164351 0.461044 -0.15197 -0.0899082 -0.164295 -0.121642 -0.141656 -0.134709 0.0312176 -0.188584 -0.136602 -0.237837 -0.161401 0.00444727 -0.0369531 -0.103449 -0.0957453 -0.0181722 -0.0383518 -0.0778322 -0.0588693 0.254888 -0.0958607 -0.0992027 -0.180727 0.323526 -0.184603 0.118215 0.019808 0.352219 -0.0911082 0.0362809 -0.119425 -0.0437006 -0.0858395 0.386625 -0.181552 0.0121665 -0.125076 -0.0361421 0.31612 -0.0766625 -0.0580328 0.301238 0.359427 0.245734 -0.201315 -0.14577 -0.0649725 -0.0386785 
48 0.170193 -0.0959938 0.242349 -0.141573 -0.047197 0.0687003 0.121697 0.125372 -0.0975158 0.00786482 0.340114 0.080161 -0.0579937 0.192595 0.27016 0.000371859 -0.132149 -0.110237 0.229322 0.0819511 0.0383135 0.091066 -0.094323 0.104436 -0.061775 0.196864 0.200187 0.295958 0.00230848 0.179864 0.0337044 0.341507 0.0898835 0.259622 0.202152 0.0734356 -0.16062 -0.0045885 0.162357 -0.0174581 -0.0281734 0.184655 0.100355 0.0966631 0.587306 0.307653 0.173558 0.0119009 0.0833483 0.0289038 0.0524563 0.0595131 -0.0874724 2.23827e-05 0.146425 0.14819 0.306685 0.170463 0.252644 0.049318 -0.143806 0.201469 0.0066765 0.187421 -0.0832438 -0.168333 0.261556 0.0888839 0.124124 0.385814 0.147585 0.390902 0.00286474 -0.0493433 0.0440598 0.0242213 0.0661227 -0.033571 -0.151759 0.130355 0.0801536 -0.0121579 0.0253305 0.114575 -0.0045467 -0.0417827 0.0392156 0.0208965 0.135835 0.0422969 0.0732875 0.284821 0.19268 0.114134 0.111762 0.193674 -0.0241353 0.0366189 -0.068488 0.360793 0.175021 0.14708 -0.100508 0.0699864 -0.0744348 0.264319 0.0685903 -0.122423 0.0669891 0.00760808 0.207715 -0.125901 -0.179932 0.396791 0.424119 0.194301 -0.0964073 -0.0054904 -0.00681962 0.171002 
49 -0.0330332 -0.134296 -0.174401 -0.166108 -0.0525438 -0.218517 0.0623531 -0.272914 -0.184316 -0.0657147 -0.173755 -0.0780749 -0.174297 -0.156827 -0.0316914 -0.197145 -0.00529366 -0.0363005 -0.0767927 -0.0473869 -0.0351271 -0.204224 -0.0632158 -0.0746656 -0.0944217 -2.83544e-06 0.594311 0.106582 -0.00840101 0.031944 -0.10547 -0.145887 -0.27621 0.0533172 -0.188632 -0.111247 -0.170862 -0.218644 0.031401 -0.0978359 -0.0508843 -0.217744 0.0215997 -0.0781338 -0.00275473 -0.0149187 -0.138602 -0.272899 -0.11824 -0.130807 -0.183018 -0.218268 -0.258537 -0.253037 -0.0628463 -0.197622 -0.0379583 -0.170926 -0.119764 0.092894 0.00111271 0.0638833 -0.205928 -0.0864992 -0.0879135 -0.000581306 -0.102981 -0.0196185 0.020579 -0.0739599 -0.159651 0.0416509 -0.205483 -0.0124651 -0.0665506 -0.151306 -0.110111 -0.0871462 -0.0118873 -0.268129 -0.216085 -0.10859 -0.184238 -0.264774 -0.0688897 -0.138644 -0.10055 -0.255586 -0.14683 -0.0285039 -0.0769249 0.128436 -0.228506 -0.272952 -0.219706 -0.0619184 -0.192199 -0.0494723 -0.223685 0.151082 -0.160114 -0.24403 -0.0843168 -0.123832 -0.184255 0.106017 -0.0859891 0.0559951 -0.0524849 -0.240331 -0.142902 -0.075184 -0.0701201 0.0931867 -0.0873727 -0.116939 -0.226471 -0.0291609 -0.0981671 0.0969405 
50 -0.0703383 0.0626392 -0.143413 0.342103 -0.0504562 -0.0613181 0.0335322 -0.0164587 -0.0417622 -0.0737513 0.0297693 -0.0311568 -0.160855 0.014067 -0.0207218 -0.175024 -0.0879494 -0.030604 -0.167701 -0.2255 -0.0653484 -0.149961 -0.0917688 -0.0862601 -0.147199 -0.0896216 -0.205723 -0.0501392 -0.0286261 -0.134135 0.00671187 -0.0841729 -0.0389124 0.00928877 -0.0602944 -0.141519 -0.0764438 -0.00286397 -0.0980568 -0.0975635 -0.11103 0.0108113 -0.0211995 -0.140091 0.00841833 -0.117108 -0.0420253 -0.107241 -0.0409945 -0.0863466 -0.0291169 -0.176547 -0.201247 -0.231103 -0.141355 -0.111039 -0.0400359 0.00731959 -0.162913 -0.132056 0.000890042 0.0272603 -0.123285 -0.0350602 -0.191981 -0.0160286 -0.0839243 -0.0497404 -0.0619156 -0.145914 -0.126301 0.010245 -0.0075945 -0.192614 -0.187221 -0.264239 -0.0301826 -0.120961 -0.201472 -0.118933 -0.235457 -0.0307654 0.0108591 -0.191302 -0.110316 -0.14417 0.0194604 0.00353628 -0.0127422 0.00292484 -0.142634 0.0264941 -0.121127 -0.0459498 -0.0609502 0.0323428 -0.0972976 -0.131555 0.0730917 -0.00249968 0.081454 -0.108121 -0.167836 0.000990416 -0.00789887 -0.145941 -0.220564 0.00711481 -0.125354 -0.0137945 -0.0375675 -0.205325 -0.00975019 -0.193987 0.0145417 -0.0751321 0.0139076 -0.110032 -0.0688898 -0.15641 
51 0.0521189 0.102414 -0.0482232 0.291437 0.0818803 0.0235594 -0.0661813 0.044745 0.0210654 -0.178525 -0.0288913 -0.0993003 0.00762005 0.0523276 -0.00516233 -0.0432242 -0.128233 -0.0217034 0.0274983 0.0941975 -0.125345 -0.191542 0.0819535 -0.0825637 7.61101e-05 -0.00571156 -0.134671 0.140819 -0.00858699 -0.116429 -0.0634612 -0.0470285 -0.167385 0.0317571 -0.172369 -0.139676 -0.0262573 0.0705638 -0.0748 -0.0717142 -0.0521361 0.135213 -0.121384 -0.0973986 0.208899 0.132933 -0.152802 -0.149245 -0.236523 -0.0930251 0.0365201 -0.00231927 -0.0977597 -0.00229818 0.014073 -0.0786305 -0.130121 0.0824841 0.171824 -0.13006 -0.0271347 0.0133043 -0.176744 -0.0558618 0.0568045 -0.118474 -0.0837589 -0.00206265 0.0310808 0.0830711 -0.0319487 0.143696 -0.0961172 0.003259 0.0234053 0.0725387 0.0903493 -0.0996402 -0.0557539 0.0505506 -0.159979 0.112099 -0.137394 -0.0338531 -0.0653504 -0.113488 -0.124831 0.102173 0.0400357 -0.134179 -0.0236355 0.0269665 0.0556804 -0.0570733 0.0654914 0.152507 0.0414263 -0.090972 -0.11364 0.0773802 0.124671 0.118221 -0.0316053 -0.0217315 -0.156809 -0.033527 -0.107649 -0.104159 -0.0991374 -0.0751578 0.0979247 -0.0599821 -0.0305103 -0.0225781 -0.0332993 0.155029 -0.0986038 -0.121659 -0.0192224 -0.103501 
52 0.203963 0.0108 0.170503 -0.291973 -0.1169 0.00797972 -0.0197365 0.0659384 -0.00815989 -0.04373 0.365372 0.230256 0.185663 0.183756 0.0786446 0.166232 -0.0880746 0.117503 0.47201 0.0814782 0.0630653 -0.0194924 0.0459328 -0.0315277 -0.0981165 0.165803 0.429616 0.47378 0.00228791 0.129545 0.154947 0.378354 -0.0893986 0.34738 0.157524 -0.021684 -0.0793485 -0.00830554 0.119281 0.0282526 -0.0354721 0.0891435 0.138001 0.102595 0.534284 0.485302 0.106351 -0.0537989 0.0263965 0.197365 0.108714 0.222261 -0.101583 -0.0997581 0.16978 0.00341142 0.368108 0.0490348 0.3455 0.152705 -0.0909638 0.294422 -0.0437878 0.0342814 -0.0506037 0.0808248 0.12758 0.0668637 -0.007713 0.469879 0.382422 0.378827 0.0971818 -0.0629807 0.00274625 0.00749718 0.0753098 0.111387 -0.097634 0.146705 0.248544 0.144142 -0.0461401 0.178241 0.112267 0.2291 -0.0446328 0.0352611 -0.114454 0.0805916 0.400853 0.258928 0.0445318 0.182204 -0.0863726 0.333834 0.0207916 0.0958427 -0.00852933 0.515517 -0.0376605 0.230454 -0.151914 0.128743 -0.00236384 0.549123 0.00793308 -0.039894 0.209602 -0.0365496 0.355102 -0.0830948 0.0442736 0.402371 0.529705 0.19048 -0.0817107 0.145649 -0.111684 0.317445 
53 0.167398 0.0653826 0.116888 -0.504426 0.0466291 -0.0106054 0.0554517 -0.0590562 0.117164 0.0204987 0.136269 0.0802501 0.128426 0.22538 0.13651 0.10405 -0.0565385 -0.0436108 0.19293 -0.00786648 0.121863 0.047911 -0.05869 0.184977 -0.137784 0.0879499 0.417457 0.330658 0.0164638 0.063804 -0.0291159 0.332462 0.0493008 0.247405 0.202097 0.0228489 -0.0818221 -0.128074 0.107368 -0.00376028 -0.0483693 0.193853 0.0857731 0.0817955 0.541048 0.441116 -0.0162295 -0.0683686 -0.0634777 0.0709949 0.167352 -0.0689643 -0.0665509 -0.0536281 0.132866 0.0231376 0.0332158 0.138673 0.243437 0.120872 0.056618 0.0499353 0.0287748 0.236348 -0.0916634 -0.0566094 0.134512 0.102149 0.0014993 0.240196 0.272185 0.269041 0.0450025 -0.0837058 -0.13382 0.00319305 0.169006 -0.0949337 0.013838 0.175938 0.0824448 -0.0633794 0.0907655 0.118181 -0.0133076 0.186404 0.023041 0.0747852 -0.100532 -0.0413736 0.200703 0.353524 0.223028 0.148072 -0.135393 0.389127 0.139604 0.00249315 -0.0980792 0.340628 -0.0536597 0.0891656 0.0558621 0.00555599 -0.0731127 0.336745 0.0979849 0.00350337 0.0832399 0.030698 0.314484 0.0441576 0.0827702 0.337141 0.352725 0.111605 0.114157 0.0278279 0.0706864 0.350373 
54 0.12685 0.0222482 0.329448 -0.428162 -0.067223 0.102849 0.187543 0.132602 -0.0515347 -0.0349127 0.30423 0.344107 0.0628876 0.098434 0.107371 0.209981 -0.0600194 0.0134917 0.473686 0.00171606 0.055928 0.0818539 0.113024 0.0164162 -0.118227 0.102731 0.398884 0.489642 0.045165 -0.00294754 -0.0564271 0.194001 0.128941 0.320325 -0.0217022 0.00525325 0.0545768 -0.0245711 0.0726751 0.0249308 -0.137949 0.0942402 0.106274 0.0250123 0.598617 0.580459 0.0142692 -0.147699 -0.111651 -0.00202842 0.144985 0.197843 -0.047211 0.0835417 0.120137 -0.0157156 0.271341 -0.0147779 0.143354 0.20675 0.0452175 0.165757 0.0329898 0.126618 0.138872 0.113795 0.160856 -0.0554632 0.102584 0.270841 0.269757 0.332123 0.136431 -0.0458691 -0.0810752 -0.0302875 -0.0791422 0.110182 -0.088644 0.146793 0.234752 0.159272 0.147355 0.110915 0.0907257 0.227989 0.0285706 0.0591492 -0.0777825 -0.0496582 0.110749 0.194254 0.0847021 0.210118 0.127326 0.443555 0.023697 0.0325989 -0.0869663 0.337712 0.0319196 -0.0143963 -0.102751 -0.0140712 0.0244034 0.416948 -0.118944 -0.108759 0.151214 0.108723 0.304477 -0.0962321 -0.0340004 0.436263 0.501997 0.218874 -0.0377225 0.153369 0.0179827 0.245882 
55 -0.0538346 0.0833169 -0.118484 0.299575 -0.102634 -0.249363 -0.262107 -0.117938 -0.0121194 -0.110801 -0.222055 -0.165055 -0.165189 -0.178302 -0.156702 -0.00887027 -0.106261 0.0196622 -0.123011 -0.0903392 -0.107411 -0.077937 -0.0843126 -0.0885557 -0.110617 -0.0125598 -0.0357172 -0.214006 -0.185449 -0.0669514 -0.0148882 -0.039633 -0.0932642 -0.116892 0.00162148 -0.0270754 -0.00350054 -0.177173 -0.0210638 -0.228143 0.0434046 -0.0837809 -0.0284505 -0.151069 -0.192023 -0.115843 -0.0123315 -0.257274 -0.154584 -0.182675 -0.163572 -0.114126 -0.205727 -0.0695495 -0.0139861 -0.183757 -0.271856 -0.11016 -0.216684 -0.165786 -0.0837239 -0.231912 -0.027182 -0.147568 -0.240995 -0.0742924 -0.0859617 -0.0720991 -0.108714 -0.184237 -0.147661 9.14234e-05 -0.0865264 -0.232469 -0.136912 -0.0885605 -0.0943807 -0.141173 0.0455817 -0.0801419 -0.0303002 0.0531692 -0.0957022 -0.112654 -0.0908138 -0.108098 -0.13621 -0.0886762 -0.145994 -0.0307359 -0.0735224 -0.233178 -0.139625 -0.0830239 -0.124785 -0.0979286 -0.118963 -0.22759 0.0111285 -0.0634173 -0.209939 0.0369438 -0.197691 -0.174034 -0.201689 -0.0303211 0.00857498 -0.0522325 -0.130939 -0.159225 -0.0969387 -0.0997756 -0.271952 -0.0480514 -0.00502659 0.0244668 -0.0632815 0.0108472 -0.0508071 -0.0291518 
56 -0.23188 -0.0645189 0.0224605 0.0136638 -0.045165 -0.0351893 -0.17256 -0.102509 -0.0169533 -0.0289358 -0.0978761 0.0185457 -0.247334 -0.238491 0.121991 -0.166402 -0.0749761 -0.0829452 -0.0271849 0.0574456 -0.0593278 0.0233049 -0.0997676 -0.119884 -0.21585 0.0897142 0.597383 0.187768 -0.119159 -0.217462 -0.228497 0.0600462 -0.244113 0.0527167 -0.0539246 -0.081761 -0.0114753 -0.162201 -0.136829 -0.0115711 -0.0506658 -0.142114 -0.14401 -0.198734 0.199395 0.182474 -0.0430404 0.0172437 -0.176319 -0.096621 -0.245457 -0.189312 -0.19764 -0.154945 -0.144521 -0.226317 -0.125131 -0.232049 -0.0286352 0.139045 -0.186162 0.129238 -0.0304472 -0.126946 -0.00996971 0.0224849 0.150315 -0.0580375 -0.211158 0.00116243 -0.0163706 0.151009 -0.0837416 -0.232654 -0.0184384 -0.205863 0.00217921 -0.147561 -0.217226 -0.0574759 0.0922696 -0.161993 -0.229909 -0.106432 -0.194244 -0.0892368 0.0137554 -0.0322752 -0.00622181 -0.24007 0.146314 0.0105153 -0.152044 -0.00738875 0.0469161 0.212088 -7.64017e-05 0.0806988 0.00438892 0.230387 -0.07406 -0.0552086 -0.0135906 -0.103369 -0.0752173 0.204578 -0.259123 0.087163 -0.140322 -0.113319 -0.0666319 -0.0484886 -0.0135239 -0.0955951 -0.0394945 -0.00366094 -0.0217017 -0.122022 -0.00222022 0.0816268 
57 -0.211208 -0.0809838 -0.0321403 -0.131974 -0.132936 -0.297536 -0.254825 -0.210786 -0.13895 -0.292124 0.0904261 -0.00121736 -0.260067 -0.129109 -0.170557 -0.113313 -0.291235 -0.246232 -0.034167 -0.0816688 -0.297181 -0.148735 -0.123492 -0.210714 -0.195309 -0.0435921 0.548999 -0.0682589 -0.153939 -0.0672713 -0.176461 -0.127919 -0.116627 0.183767 -0.214369 -0.238645 -0.223415 -0.0752047 -0.12686 -0.126997 -0.227623 -0.0526006 -0.165706 -0.0304061 0.350151 0.131446 -0.314845 -0.219286 -0.230882 -0.259217 -0.261071 -0.311977 -0.104386 -0.211272 -0.0851514 -0.265013 -0.200939 -0.168216 -0.068972 -0.114654 -0.305035 -0.0206542 -0.10239 -0.118844 -0.0476137 -0.317438 0.0413252 -0.195683 -0.183726 0.0360577 -0.231701 0.250092 -0.23545 -0.294493 -0.229792 -0.245768 -0.0900326 -0.076738 -0.125243 -0.318512 -0.115236 -0.178415 -0.172254 -0.0429295 -0.0436957 -0.0182613 -0.274406 -0.235655 -0.169545 -0.265527 0.00705765 0.0809992 -0.064873 -0.0604673 -0.00882201 0.087276 -0.121813 -0.110802 -0.0751729 0.133945 -0.272374 -0.0604772 -0.284546 -0.0371269 -0.299193 0.256325 -0.203939 -0.0187757 -0.278083 -0.206901 -0.0360763 -0.189618 -0.0280706 0.0857704 0.0282393 0.0868768 -0.0786625 -0.0625347 -0.237664 -0.0882408 
58 -0.183757 -0.0850537 -0.0689698 -0.177108 -0.0720224 -0.1294 -0.0662017 -0.158079 -0.0669851 -0.170955 -0.170429 -0.114718 -0.233884 0.019782 -0.120795 0.00988054 -0.198715 -0.18708 -0.088487 -0.0912621 0.00187106 -0.0609253 -0.0103379 -0.0900637 -0.196961 -0.101007 0.561412 0.046596 -0.106475 -0.174278 -0.0279009 -0.271451 -0.101504 -0.0836298 -0.196271 -0.241461 -0.205462 0.0157116 0.0236057 -0.087764 0.0184075 -0.188975 -0.0527655 -0.10068 0.085096 -0.226024 -0.204376 -0.0365904 -0.179655 0.0369314 -0.141805 -0.191103 -0.0480614 -0.187332 -0.230708 -0.256277 -0.147538 -0.25661 -0.0600245 -0.159268 -0.225639 -0.211672 -0.256634 0.0640948 -0.209008 0.000767127 -0.148548 0.00135745 -0.0298507 -0.121194 -0.00338529 -0.170856 -0.0967116 -0.0548683 0.0164304 -0.0275641 -0.148916 -0.213598 0.0158665 -0.041889 -0.223357 -0.213418 -0.0673425 -0.0697205 -0.0094012 -0.182585 -0.2033 -0.0123136 -0.217729 -0.133161 -0.127513 -0.0529684 -0.190908 -0.233617 -0.169372 -0.093072 -0.232484 0.045639 -0.201172 -0.00722564 -0.146441 -0.202791 -0.105963 -0.0104608 -0.0553804 -0.196602 -0.278463 -0.025898 -0.193002 -0.0228601 -0.165921 -0.0322684 -0.0176665 -0.161809 0.0924241 -0.138515 0.00876871 -0.204293 -0.158197 0.0404248 
59 -0.0955346 -0.128153 0.0751637 -0.176938 -0.0256815 -0.19196 -0.148961 -0.163011 -0.126019 0.0407175 0.0820189 -0.0277033 -0.10476 -0.072988 0.0933378 -0.0250914 -0.212952 0.03935 -0.0583061 0.0574301 -0.018784 -0.214863 -0.124857 -0.229646 -0.13365 -0.00276734 0.530266 -0.0768262 -0.23627 0.019866 -0.0437732 -0.114142 -0.0358732 0.0414809 -0.125801 -0.0663447 -0.171473 -0.0460674 0.0477384 0.0615565 -0.0433027 -0.098751 -0.257703 -0.0765203 0.0501439 -0.0177737 -0.230117 -0.00240817 -0.233861 -0.131826 0.0265798 -0.188417 0.0448312 -0.202798 -0.18683 -0.179311 0.0852547 -0.0588877 0.0307604 0.0765266 -0.218211 -0.178842 -0.0697177 -0.166537 -0.0577289 -0.225288 -0.0631477 -0.0206674 -0.140273 -0.154958 -0.141749 0.0918942 -0.218926 -0.0880559 -0.0390761 -0.212467 0.0296741 -0.00995727 0.0104326 -0.124256 -0.180099 -0.160666 -0.15458 -0.0179111 -0.0849692 -0.0664334 -0.0615199 -0.18555 -0.234962 0.0388372 0.0774571 -0.188749 -0.189702 -0.224239 0.0712422 0.0964919 0.0280345 0.0685253 -0.12721 0.00592908 0.0434066 -0.180585 -0.0474555 -0.183819 -0.0640037 0.0875125 -0.151868 -0.0878774 -0.0160279 -0.0431662 -0.197466 -0.0321465 -0.19334 -0.0512107 0.00602285 -0.111736 0.047194 -0.0218845 -0.0892305 -0.0465904 
60 0.126001 0.0357088 0.0413165 -0.315634 -0.0502329 0.0527642 0.0465289 0.0270206 -0.0987867 0.132464 0.329664 0.246307 0.015158 -0.0327482 0.158114 -0.0540575 -0.177411 -0.118178 0.373511 -0.0584266 -0.0204497 0.146757 -0.0706939 0.115985 -0.0450557 0.0614182 0.444529 0.417327 0.105016 0.0525734 -0.160796 0.161192 -0.0668001 0.265721 0.114641 -0.0414508 -0.0946913 0.0394861 0.0573663 0.136375 0.0160439 0.123147 -0.0699133 -0.192004 0.393955 0.358245 0.0021571 -0.185433 -0.111921 -0.07203 -0.0799576 -0.144334 -0.12424 -0.102902 0.15635 -0.113449 0.177118 0.0874337 0.34667 -0.00194556 -0.00556603 0.0591709 0.122343 0.127461 0.131305 -0.0927451 0.248955 0.0286659 0.00943628 0.350367 0.280231 0.304283 0.110412 -0.180723 -0.102017 -0.0215144 -0.0770863 -0.0467194 0.0861247 -0.151495 0.00622896 -0.139163 -0.148127 -0.119997 -0.0709227 0.0125717 0.0325543 -0.0285255 -0.024968 -0.105523 0.256066 0.134395 0.0507394 -0.0914712 0.00152113 0.414892 -0.0348617 0.235395 -0.104675 0.300312 0.0720208 -0.0240224 0.00379255 -0.0766762 -0.0785355 0.405964 -0.00288202 -0.140109 -0.104791 0.079758 0.185026 0.0579902 -0.177743 0.391785 0.305271 0.354941 0.0540281 0.120329 -0.0210166 0.136987 
61 -0.144431 -0.144684 -0.0103581 -0.309455 -0.165393 -0.103043 -0.256305 -0.0344212 -0.00330737 -0.244839 -0.0131992 0.0122655 -0.155339 -0.103442 0.0540962 -0.204582 -0.0805751 -0.150919 0.204265 0.0296807 -0.221675 -0.0892712 -0.127891 -0.257184 -0.263174 -0.0177188 0.480153 0.153267 -0.0583288 -0.133012 -0.0457062 -0.158366 -0.00795267 0.225478 -0.0348115 -0.136848 -0.199469 -0.228571 -0.0943438 0.0568225 -0.064192 -0.010232 -0.197854 -0.247568 0.411467 0.163271 -0.0897638 -0.0249699 -0.00909673 -0.231998 -0.227275 -0.136646 -0.250243 -0.00759201 0.0466154 -0.219268 -0.20017 0.0603129 0.110645 -0.041162 -0.259722 0.0550401 -0.187816 -0.0285915 -0.187036 -0.102021 -0.0381091 -0.0727384 0.0135178 0.042584 -0.0312118 0.286122 -0.00631721 -0.0506773 -0.0505233 -0.0637415 -0.25525 0.0339836 -0.134292 -0.215324 -0.000507958 -0.109784 -0.0401953 -0.151108 -0.1703 -0.0724332 -0.156778 -0.261655 -0.00740392 -0.0233491 -0.146405 -0.0598891 -0.220999 -0.200344 -0.130134 0.0852414 -0.0566235 -0.155353 -0.22463 0.160929 -0.196233 0.0277839 -0.107324 0.0533798 -0.154312 0.239336 -0.202854 -0.0447657 -0.0343464 -0.205533 0.195801 0.016654 -0.127357 0.141296 0.191367 0.00284637 -0.133795 -0.149164 -0.161165 -0.0254929 
62 0.131293 0.0269767 -0.0249086 0.384209 -0.0671032 0.0573425 0.0317221 0.195609 0.0722348 -0.17365 0.125651 0.0844525 0.0794215 -0.0357985 0.115794 0.175217 -0.144723 0.0121393 0.289561 0.00478119 -0.0675346 -0.10194 -0.0457437 0.0596473 0.0193946 -0.0554632 0.0326532 0.0340469 0.133707 0.111275 -0.144411 -0.0269793 -0.0418804 0.259852 -0.0937502 0.0203216 -0.178394 -0.138556 -0.0256467 -0.0565945 0.0147596 -0.0101401 -0.0459449 0.0563341 0.230299 0.24933 0.148406 -0.0350918 -0.0351778 0.0604295 0.13775 0.176583 0.104763 0.0617223 0.107149 -0.0604495 -0.000266257 0.0965343 0.140845 0.0778318 0.0160692 0.0709714 -0.0296988 -0.0130532 0.0911418 0.0019111 0.13374 -0.152981 0.175376 0.0565916 0.0533615 0.0409951 -0.116542 -0.143977 -0.0827508 -0.0122212 -0.0513769 0.0687317 -0.130645 -0.00023242 -0.0761205 0.165571 0.0195728 0.0547952 0.15969 0.142032 -0.0815563 0.00793352 0.0138789 0.03682 0.161357 -0.0284901 0.159404 -0.0615055 -0.0248634 0.10161 -0.0914996 0.0103336 -0.106477 0.150811 -0.0412552 0.188596 0.107374 0.118735 0.0857256 0.318216 0.101691 -0.153603 0.010091 -0.0521152 0.220758 -0.071384 -0.0989296 0.180598 0.226781 0.0473294 -0.0483026 0.131959 0.0392067 0.0183905 
63 -0.0465708 0.0181666 0.154146 -0.338085 -0.101673 -0.0438201 0.0379895 0.0921429 0.0976857 -0.0606706 0.0514691 0.19491 0.0443907 -0.0606935 0.1724 0.125052 -0.148633 -0.172387 0.331219 0.0571477 -0.0687724 -0.0925487 0.0570667 -0.0588159 -0.153257 -0.0261315 0.339803 0.214853 -0.0675898 0.0391132 0.0732797 0.266809 0.0734897 0.427904 0.130699 -0.0882963 -0.0214032 -0.140832 0.131595 -0.0266386 0.0993467 0.167276 -0.0152196 -0.0951667 0.437518 0.333643 -0.0249898 -0.0751317 0.0679451 0.166932 -0.0706639 0.149284 0.0971965 0.0842119 0.0211721 -0.121117 0.0128596 0.203768 0.111731 0.138123 0.0628648 0.184258 -0.0101562 0.106164 -0.0519325 0.088508 0.277649 0.0421099 0.096257 0.201375 0.00679688 0.40695 0.141357 -0.00115416 -0.0189402 -0.140701 -0.00721909 -0.0336151 -0.0679358 -0.0939958 -0.100314 -0.00423091 0.0346885 -0.0408539 -0.0818324 0.071517 -0.0447304 0.15143 0.0406545 0.063375 0.161288 0.209558 0.179465 0.0492699 -0.0115068 0.195543 0.0173666 0.0491644 -0.0627528 0.298648 0.12025 0.0851446 -0.0867505 -0.0661746 -0.109325 0.390813 0.012209 0.0427789 0.083406 -0.125889 0.447572 0.0564639 -0.124784 0.385639 0.395524 0.23603 -0.133765 0.0343462 0.00990785 0.158318 
64 -0.158292 -0.150069 0.159529 -0.195028 -0.0558927 -0.0176038 -0.0181648 -0.0687547 -0.104076 -0.0485776 0.102515 -0.042361 -0.0351258 -0.181287 0.0106041 -0.0459308 -0.219004 -0.188823 0.138497 -0.0484632 0.0429359 -0.14915 -0.0228093 0.00743374 -0.0564413 0.035421 0.458251 0.0665988 -0.236261 -0.0684066 -0.0634609 0.0424464 -0.238686 0.0676219 0.12904 -0.0324376 -0.0054011 0.0319317 -0.128675 0.0714277 -0.204355 -0.176444 -0.209469 -0.162689 0.199067 -0.0476596 -0.210972 -0.0927683 -0.238775 -0.0973261 0.0482966 -0.166253 -0.0563358 -0.059307 0.0394451 0.033778 -0.00955412 -0.20124 0.178744 -0.0118199 -0.151347 0.0379197 0.0102641 0.0718861 0.08032 -0.107315 -0.0383669 -0.187815 -0.220727 0.0305988 -0.100652 0.0932659 -0.117901 -0.245524 -0.0143661 -0.170359 -0.0176478 -0.130478 -0.217709 -0.0555357 -0.016563 -0.0239121 0.0467188 -0.0550433 0.00641105 0.0728034 0.0187068 -0.0399135 -0.146424 -0.00341251 -0.0565135 0.0167603 -0.142493 -0.169838 0.0965871 0.250551 -0.0748469 0.0289703 -0.000943512 0.257197 -0.21478 -0.162371 -0.0517944 0.0896699 -0.0518579 -0.0470215 -0.0970025 -0.0894618 -0.0803793 -0.196056 -0.0439298 -0.073566 -0.1721 -0.0387169 0.226149 0.139993 -0.0496137 -0.0579635 -0.04572 0.0743186 
65 -0.19602 -0.0740107 -0.222874 0.252481 -0.058937 -0.10714 0.0426001 -0.105652 -0.0557697 -0.205954 -0.216038 0.076054 0.108322 -0.0796026 -0.0976497 -0.0399357 -0.128717 -0.151807 -0.140185 -0.169123 -0.00485216 -0.0653888 0.118016 0.0212664 -0.145868 0.00589631 -0.013871 0.0860921 0.0672669 -0.00308956 -0.00856825 -0.110556 -0.167274 0.0571586 -0.015733 -0.0114782 -0.0580157 -0.157003 -0.237653 -0.162622 -0.0133265 0.077086 -0.0835736 -0.109713 -0.0850131 0.00277979 -0.16915 0.00942042 -0.183838 -0.168286 -0.0681008 -0.109144 -0.0148879 -0.0199301 -0.149862 0.016256 -0.066227 0.0777436 -0.0200709 0.0232984 -0.171472 0.0562359 -0.145747 -0.197759 -0.229663 0.0390626 -0.233308 -0.0516404 0.0747568 -0.112978 0.0747252 -0.0475568 -0.0149872 -0.230218 -0.128931 -0.173842 0.02616 0.0357038 -0.183376 -0.0755762 0.0295063 -0.156365 -0.106493 -0.11023 0.00712786 -0.121107 0.0109576 0.00824376 -0.1809 -0.15732 -0.0444831 -0.000173303 -0.128775 0.0245897 0.00397237 -0.131526 -0.0257363 -0.16864 -0.153726 -0.0858371 -0.14163 0.0919045 0.0292474 0.00378413 -0.214331 0.114921 -0.0258082 -0.0458709 -0.168877 -0.00583333 0.0481674 -0.1651 -0.00735882 0.00437329 -0.0877203 -0.13166 0.0690744 0.0726701 -0.188881 -0.149306 
66 -0.1441 -0.199073 0.0263628 0.469991 -0.205942 -0.0910421 -0.236918 0.0478592 -0.257571 -0.0242683 -0.169572 -0.169041 -0.155234 0.00124444 -0.217279 -0.0999686 -0.138965 -0.0631238 0.0619543 -0.133263 -0.242081 -0.0145822 -0.0261023 -0.0904766 -0.168607 -0.108031 0.0982775 -0.161992 -0.185976 -0.148552 -0.244547 -0.0113665 -0.100535 0.0331131 0.0232735 -0.208804 -0.131654 -0.0866452 -0.201361 -0.122573 -0.0572594 -0.0155132 -0.207866 -0.262007 -0.0521731 -0.109529 -0.102416 -0.296174 -0.285234 -0.174583 -0.0465986 -0.236783 -0.104092 -0.307623 -0.0875517 -0.295407 -0.159307 -0.188829 -0.124179 0.0286564 -0.0782354 -0.0603857 -0.0410904 -0.105334 -0.122774 -0.0716345 -0.0065109 -0.0768698 -0.137672 0.142975 -0.0472924 -0.0693891 -0.0234399 -0.0225342 -0.18412 -0.182266 -0.166018 -0.120436 -0.25165 -0.0587749 -0.0473277 -0.110512 -0.118757 -0.270891 -0.0636593 -0.185789 -0.117858 -0.174173 -0.0126331 -0.0608167 0.0428285 0.0634914 -0.128674 -0.190422 -0.222669 -0.0948324 -0.0747412 -0.136619 -0.245427 -0.129998 0.035776 0.0123414 -0.284706 -0.131794 -0.198258 0.102779 -0.125884 -0.25225 -0.0215512 -0.162758 0.0774226 -0.258314 -0.127363 -0.124395 0.149684 0.0237252 -0.149872 -0.231562 -0.0393895 -0.152872 
67 0.241405 0.000157061 0.171995 -0.250657 -0.0705133 0.113916 0.215854 0.242646 0.15894 0.211943 0.352888 0.259779 0.264246 0.179816 0.310985 0.123841 -0.0930601 0.108915 0.308553 0.172291 0.0592859 0.126297 0.194603 0.219358 0.0596856 0.297197 0.450615 0.327335 0.139179 0.103479 0.0415557 0.207785 0.0445767 0.442513 0.197238 -0.0707653 0.0288604 0.190795 0.220891 0.110907 0.0176257 0.161526 -0.0554036 0.0215354 0.65769 0.413637 0.0693266 -0.0410435 -0.00972485 0.0917947 0.0519051 0.139125 0.0455944 -0.117513 0.274237 -0.0308745 0.160231 0.295007 0.466499 0.341296 0.096127 0.406641 0.205821 0.292271 0.0536613 -0.0680847 0.335958 0.107447 0.111043 0.364601 0.26206 0.323352 0.13977 0.136528 -0.0776002 -0.0685953 0.230045 0.165072 0.19344 0.153221 0.0871502 0.0321298 0.136516 -0.0040343 0.289779 0.337981 0.119551 0.221367 0.0619507 -0.033887 0.280561 0.381943 0.115892 0.25253 -0.0299123 0.29924 0.157754 0.0816715 -0.044116 0.336 0.0224226 0.190374 0.123868 0.0478717 0.213829 0.328361 0.159058 0.177649 0.249291 0.0280849 0.509108 0.145261 0.0684555 0.312418 0.341673 0.392677 0.124054 0.0799154 0.178085 0.40907 
68 0.0116872 -0.120935 -0.0421158 -0.212308 -0.0709845 -0.228921 -0.164595 -0.24609 0.0414171 -0.216146 -0.11397 -0.0925225 -0.211999 -0.0565377 -0.0733375 -0.168234 -0.16226 -0.154657 0.0725528 0.0140426 -0.12142 -0.1398 -0.0794225 -0.0951493 -0.022033 -0.170375 0.80129 -0.180838 -0.223737 -0.199421 0.010861 -0.168683 -0.237551 -0.160343 0.015762 0.0256161 -0.130597 -0.00815883 -0.0857236 -0.0699269 -0.124108 -0.0220617 -0.133189 -0.0851436 -0.121566 0.0479698 -0.046295 -0.149537 -0.034975 0.0250726 -0.00743966 -0.0283111 -0.0885313 -0.00783371 -0.0694959 -0.0376993 -0.0703971 0.0126457 0.0392527 -0.0366435 0.0206439 -0.104499 -0.126167 0.0232599 0.0555675 -0.270452 0.048829 0.000913837 -0.121068 0.0682502 -0.139428 -0.14141 -0.11863 -0.180547 -0.0246998 0.0403669 -0.172272 -0.259083 -0.0382738 0.0336806 -0.133528 -0.232632 -0.25788 -0.0602093 -0.0760563 0.00958873 -0.0857742 -0.0617259 -0.00604734 -0.197371 -0.148995 0.065288 -0.0782535 -0.0918726 -0.151271 -0.0555758 -0.237004 -0.102848 -0.239593 0.0504006 -0.0828566 -0.25268 -0.0647253 -0.130157 -0.186371 -0.0841344 0.0150223 0.0658565 -0.165044 0.00782349 -0.149592 -0.0566257 -0.235378 -0.156441 -0.0279237 -0.0899827 -0.125334 -0.00499746 -0.253479 0.0974795 
69 -0.0751752 -0.0297613 0.115598 0.36957 -0.088197 -0.0373546 -0.0123057 -0.122641 0.00723983 -0.176769 -0.0258573 -0.0575049 -0.0948153 0.028438 0.0229707 0.131703 -0.187045 -0.178912 -0.073177 0.0974664 0.138495 0.000705083 -0.0193199 0.107233 -0.0761961 0.0904918 0.454254 0.0639673 -0.0706855 0.0250818 -0.011239 0.198501 0.0316147 0.130269 -0.148274 -0.0143295 -0.0259151 -0.0627256 -0.00804201 -0.0123766 -0.0932756 -0.0614884 -0.0829895 -0.155921 0.302206 0.139231 0.0293728 0.0865926 0.0133724 -0.0311724 -0.0406357 0.00986296 -0.0683292 -0.133616 0.110355 -0.11104 0.161324 0.0497284 0.163737 0.0829457 -0.171389 -0.0861483 -0.0326683 -0.0484939 -0.171828 0.0991474 0.000898103 -0.170283 -0.0430527 0.12466 0.0363096 0.221747 0.0666987 -0.0582216 -0.0605984 -0.0669573 -0.167031 0.0269436 -0.15653 0.0183516 -0.00391751 0.0443833 -0.11119 0.0495372 -0.103361 -0.0687164 0.0652114 -0.0933998 0.113307 -0.0402819 -0.0754747 0.0642496 -0.0262714 -0.00605423 -0.152517 0.121434 -0.0921085 -0.156388 0.0404688 0.151096 0.0402389 0.0856247 -0.0161308 0.0106812 0.0959066 0.191579 0.000878875 -0.112012 -0.0465437 0.094658 0.218252 -0.108315 0.000639263 0.00450472 0.0641097 -0.0381999 0.0235295 0.126278 0.0607139 -0.113782 
70 -0.0329482 -0.00427578 0.13841 0.351949 -0.0715517 0.0164504 -0.0746187 0.161687 -0.0631986 0.135005 0.236751 0.173004 0.0275201 0.0245902 0.15345 0.22732 -0.0801899 -0.0542219 0.129971 0.106013 -0.00759877 -0.0457937 0.0755218 0.225132 -0.127234 0.114518 -0.087174 0.211447 0.0251382 0.204002 -0.0957551 0.0994931 0.127405 0.2607 -0.0699589 0.0828769 0.016887 0.109025 0.0633666 -0.0262116 0.109545 0.0972081 0.0460055 0.00464598 0.399667 0.0644627 -0.00853825 -0.125353 -0.0934059 -0.027052 -0.0288335 0.0562386 -0.0305132 0.128579 -0.0437535 0.127373 0.19103 0.0697808 0.024294 0.0604086 0.105995 0.241424 0.0694219 -0.0535859 -0.12198 0.10425 0.116918 -0.0495478 0.0319877 0.105968 -0.0107452 0.0944925 0.0670482 -0.00289917 0.0128055 -0.0482891 0.0464782 0.0173795 -0.0632118 0.123532 0.0193833 0.0525041 -0.0806711 0.0888358 0.0865935 0.0879648 -0.0701056 0.0648802 0.0417226 -0.0514409 0.161756 0.0532564 0.123703 0.196537 -0.115316 0.104819 0.0462617 0.100517 0.0872483 0.315331 0.241344 0.0878636 -0.0328066 0.048516 0.170141 0.320661 -0.0864945 -0.0820542 -0.0604773 0.101624 0.19603 -0.0470446 0.0438478 0.148102 0.293664 0.277629 -0.0653695 0.124526 0.116844 0.0629991 
71 -0.12785 -0.0970997 -0.0385429 -0.0102416 -0.205682 -0.168651 -0.050253 -0.234068 -0.244909 -0.20648 0.0284347 -0.0536358 -0.137795 -0.0214687 0.0411272 -0.226972 -0.0914749 -0.152696 0.0563961 -0.12336 -0.0607158 -0.214384 -0.0103631 -0.192704 -0.205296 -0.132164 0.680449 0.115658 -0.256062 -0.022543 -0.144188 -0.206647 -0.232803 0.108475 -0.204847 -0.00607998 0.0173983 0.0101165 -0.107424 0.0142755 -0.0511338 0.00891676 -0.132257 0.00673182 0.127573 0.0897512 -0.0270994 -0.0933544 -0.0110875 0.0118197 -0.202768 -0.122412 -0.21013 -0.143737 -0.107913 -0.0161303 -0.18664 -0.109648 -0.118122 0.00781777 -0.0393046 -0.0802114 -0.225954 0.0408893 0.00460435 -0.235446 -0.0832019 -0.134546 -0.270553 -0.138713 -0.20429 0.0142006 0.0396765 -0.0633283 -0.135033 -0.0411542 -0.239571 -0.137513 -0.041245 -0.12938 0.0511235 -0.183932 -0.187064 0.0183073 -0.113039 -0.127609 -0.10444 -0.220933 -0.0726704 -0.247009 0.0738115 -0.064184 -0.1932 -0.237741 0.0747979 0.100403 -0.0712404 -0.0883665 -0.0334982 0.131303 -0.258028 -0.244588 -0.0282122 0.0625593 0.0199018 0.11488 -0.119132 -0.17153 -0.0650711 -0.0062755 0.130978 -0.140813 -0.0522737 -0.0934906 0.0171485 0.00777056 -0.210178 -0.0437079 -0.203491 0.0897943 
72 -0.0695598 0.0561512 0.167134 0.301087 -0.0457651 -0.108721 0.00912237 0.0460167 0.0191433 -0.00197958 0.143029 0.0268752 0.0510512 0.14821 0.00752078 0.108256 0.0298758 0.00729722 0.0527995 0.112984 0.10641 -0.00815006 0.125622 -0.00603837 0.00972704 -0.118883 0.0399351 0.0918444 0.0445728 0.094498 -0.112923 0.0371305 0.0578031 0.156309 -0.0662503 0.171848 0.0505227 0.0603844 0.148115 -0.0248258 -0.104167 0.0280094 -0.0926689 -0.0678019 0.163453 0.140737 -0.00268718 -0.111857 -0.105697 -0.0413923 0.15248 0.0184126 -0.0622622 0.0262879 0.0054821 -0.00842372 0.106293 0.110775 -0.0219682 0.122242 0.0170019 -0.0165275 -0.122739 -0.10127 -0.109234 -0.138088 0.16355 0.0782106 0.109486 0.2352 0.0112985 0.0398301 -0.133322 0.0809574 0.0103023 -0.00818951 0.0575247 0.0514576 0.0783413 0.0325162 -0.0613223 0.0773912 -0.0429453 -0.0284968 -0.0500392 -0.0107834 0.0708505 0.045594 0.0747908 0.0134703 -0.0918541 0.0828388 0.0701378 -0.0567956 -0.0270489 0.0887052 0.0210312 0.107196 -0.0427227 0.0140618 0.167569 -0.106026 -0.0138893 -0.00677192 -0.1081 0.106598 0.102325 0.112276 -0.0672724 -0.138144 0.000481556 0.0925522 -0.072939 -0.0299552 0.136192 0.185129 0.0723099 0.192154 -0.129471 -0.0599758 
73 -0.021227 0.0692588 0.100835 0.400786 -0.0603871 -0.0938823 -0.200024 -0.0177311 0.0790392 0.0457472 -0.0986038 0.0937615 -0.0165039 -0.097649 0.0286628 0.0964149 -0.189852 0.0846832 -0.0665892 -0.034246 0.119925 -0.0330292 -0.060717 -0.0219354 0.0230271 -0.12918 0.0753174 0.0850345 -0.137502 0.058741 -0.0262921 -0.103098 0.110735 0.0456069 -0.0757511 -0.0579357 -0.175532 0.0337757 -0.0317212 0.0621773 -0.133945 0.126549 -0.0163255 -0.0562361 0.100371 -0.0174461 0.0916483 -0.0680493 0.0104459 -0.185993 -0.0699527 -0.00443065 -0.140915 0.0443424 -0.103687 -0.0366922 -0.109632 0.0337525 0.120866 -0.0494384 0.0750067 -0.100882 0.0281831 -0.0135542 0.0280829 -0.0282829 -0.0703377 -0.0926765 0.0101988 0.173711 -0.00577676 0.109839 -0.0804346 -0.20686 -0.0466688 -0.0971985 0.112414 0.101001 -0.096626 -0.0535387 -0.185138 -0.00860764 -0.178332 -0.00452629 0.0122474 0.00645973 0.0497698 -0.0997469 -0.143528 -0.0531721 0.115332 -0.0390569 0.0806714 -0.116902 -0.00247766 0.02985 -0.0197463 0.0756609 0.12979 0.0560134 0.11588 0.133821 -0.00380028 -0.127649 -0.140392 0.0827888 0.0068446 -0.0127143 -0.0770185 -0.171542 0.0860271 -0.103564 -0.0431167 -0.0322035 0.177018 0.0806244 0.0845143 0.00736255 0.0298578 -0.0249212 
74 0.0113569 -0.00191567 0.178054 -0.264584 0.0745004 -0.000375703 0.0200106 -0.00896032 -0.0413933 0.0500118 0.129485 0.175811 -0.0505228 0.144297 0.247526 -0.00216106 0.0115036 -0.15725 0.217469 0.17672 0.00317183 0.00657287 0.131395 0.0247176 0.0867904 -0.0613954 0.320517 0.354481 0.107106 0.0591788 -0.0325786 0.17795 -0.00790652 0.432205 0.239803 -0.094575 0.0254626 -0.110513 -0.0573729 0.0195968 0.103206 0.160962 0.0537975 -0.0485964 0.399178 0.261739 0.0895427 -0.12487 -0.101056 0.0347254 0.142869 0.176653 -0.118317 0.0233505 0.217381 0.0369787 0.26896 -0.0305692 0.270973 0.0379991 0.129663 0.235297 0.0615437 0.105629 0.161981 0.0870424 0.150912 -0.0181905 -0.0069574 0.151314 0.0873515 0.556801 0.0648599 0.0417009 0.0740164 -0.0356542 0.0504269 0.00388062 0.114144 -0.0176453 0.16653 0.0988943 0.0384559 0.0926899 0.0406612 0.035121 -0.118987 -0.0220546 0.131596 0.0734793 0.209571 0.344673 0.218767 0.034911 -0.140151 0.431129 0.0189505 0.191329 -0.137059 0.483505 0.0884423 0.098875 -0.0811431 0.205794 0.0785587 0.25703 0.12761 0.147006 0.0543113 -0.0970916 0.221197 -0.124577 -0.0391352 0.312852 0.386336 0.259212 -0.0431953 0.022218 -0.0529841 0.270265 
75 -0.186315 -0.0460064 0.104875 0.320544 -0.206492 0.00739287 -0.106423 -0.0645485 -0.0794995 -0.0301476 0.140423 -0.104944 -0.259029 -0.0370463 0.0869156 -0.0372282 -0.211678 -0.240187 -0.0663192 -0.0108164 -0.0669655 -0.0523192 -0.231004 -0.100439 0.0118556 -0.136689 0.196031 0.0630161 -0.00504933 -0.146401 -0.0901048 0.0087612 -0.00975377 0.0522301 -0.0788497 -0.0783853 -0.061848 -0.262385 0.037292 -0.0589635 -0.0757103 -0.21951 -0.184824 0.0199587 -0.0114743 -0.0204127 -0.195472 -0.168914 -0.0640611 0.0299117 -0.0229867 -0.0947549 0.00238038 -0.190326 -0.138954 -0.153234 0.00709241 -0.165646 -0.0432319 0.0347024 0.000128165 -0.153175 -0.052611 0.035038 -0.186086 -0.0233038 0.131773 0.021726 -0.0047825 -0.0590181 -0.0105779 -0.0097434 -0.225383 0.0138831 -0.0361651 -0.197522 -0.195733 -0.120147 -0.170239 0.0411591 -0.172846 -0.126176 -0.145788 0.0188943 -0.175724 0.0125047 -0.038228 -0.00678949 -0.0856142 0.0495204 -0.0473379 0.0327758 0.0904356 -0.0937558 -0.0909675 0.0465254 -0.184461 -0.172502 0.00237381 0.12826 0.0402995 -0.140482 -0.0475074 -0.0195486 0.0233377 0.145247 0.0434667 0.0756751 -0.204715 -0.130456 0.0799679 -0.0456728 -0.0476698 0.13 -0.0211564 -0.0651733 -0.196392 -0.0194327 -0.146049 -0.077016 
76 0.0211166 -0.188793 0.0531181 -0.389497 -0.249214 -0.105853 -0.0398619 0.0561669 -0.175498 -0.0786831 0.28463 0.230034 -0.142005 -0.189694 0.123324 -0.212399 -0.0648784 -0.199487 0.284409 -0.0996211 -0.0573378 -0.0779431 -0.128495 -0.215127 -0.0408428 0.00649538 0.478041 0.416806 -0.0863501 -0.047563 0.0307464 0.0546734 -0.0901873 0.457033 -0.0351629 -0.00909178 -0.0617315 -0.212439 -0.150768 -0.0805955 -0.191762 0.0327495 0.0117653 -0.153626 0.505571 0.389681 -0.243697 -0.236732 -0.0105395 -0.0591718 -0.132522 -0.225732 -0.219023 -0.220486 0.132642 -0.101221 0.0486392 -0.128476 0.301954 -0.00594479 -0.242453 0.0526614 -0.206297 0.0479354 0.0291122 -0.202342 0.205614 -0.228048 0.05347 0.347171 0.0902306 0.246188 -0.202165 -0.209628 -0.185531 -0.164512 -0.204613 -0.176756 -0.052405 0.0110964 0.035702 0.0158759 0.0224364 -0.0730899 -0.11446 -0.0791112 0.0274526 0.0428832 -0.190477 -0.0614418 0.0159549 0.156638 0.0807821 0.0410025 0.00769882 0.291634 0.0505398 0.0470349 -0.152137 0.41956 -0.019114 -0.124431 -0.0542775 0.0346466 -0.244691 0.205951 0.0392598 -4.68852e-05 -0.0381303 -0.228421 0.387706 -0.162958 -0.165596 0.214836 0.289755 0.154799 -0.1081 -0.136517 -0.212306 0.0867703 
77 -0.0107588 -0.157417 -0.0976356 -0.236541 -0.0264081 -0.265088 0.0128488 -0.014203 -0.239586 -0.0623653 -0.112641 0.0580736 -0.049421 -0.0759619 0.109663 -0.0127528 -0.152522 -0.106066 0.0558944 0.00597063 -0.0700971 -0.135108 -0.0253746 -0.201721 -0.258768 -0.121967 0.579219 -0.0402717 -0.0441312 -0.220442 -0.166864 -0.134056 -0.00877638 0.128118 0.0515159 -0.10134 -0.199921 -0.0536277 -0.0943678 0.111334 -0.0896045 -0.133914 -0.0658671 -0.199406 -0.0607965 -0.155019 -0.107063 -0.257832 -0.103131 -0.177723 -0.0930555 -0.0315923 -0.213155 -0.018242 -0.0776428 0.0455651 -0.185453 -0.159706 0.0824428 0.133144 -0.0170066 -0.163695 -0.0447191 -0.184764 0.0267507 -0.0882912 -0.0262278 -0.0142272 -0.0463356 -0.162541 0.03416 -0.115646 -0.157866 -0.224729 -0.24371 -0.104044 -0.0291341 -0.176159 -0.131542 0.00341316 0.0231049 -0.188717 -0.191617 -0.195095 0.029806 -0.0664804 -0.197116 -0.252182 -0.145888 -0.12197 0.0231362 -0.105938 -0.141313 -0.100366 -0.11369 0.0972765 -0.0663215 -0.171837 -0.170167 0.0826093 -0.0393689 -0.0274711 -0.162378 -0.0655083 0.0122966 -0.0709487 -0.0263274 -0.0897771 -0.127268 -0.00153658 -0.0642592 -0.23641 -0.0379223 -0.0845707 -0.0543489 0.0146183 -0.196931 -0.0225625 -0.0170675 -0.0905612 
78 -0.124878 -0.0828958 0.134873 0.198906 -0.0963101 -0.0647591 0.129001 0.103949 0.143673 -0.00965458 0.106074 0.0894601 0.138224 -0.0231952 0.0531131 -0.130509 -0.13821 0.123824 0.150098 0.142484 0.0239717 -0.0640642 0.134033 0.00168993 0.129749 -0.000944106 0.408614 -0.000906315 -0.115335 0.105806 0.0698324 0.158188 -0.0575197 -0.0207872 0.0372031 0.0148829 -0.10727 -0.150206 -0.0229433 0.0719814 0.145627 0.0271466 -0.0505556 -0.0843708 -0.0166423 0.163028 -0.124016 0.057402 -0.12022 0.0149287 0.166708 -0.0423328 0.0457237 0.106533 -0.0506582 -0.122479 0.1229 0.0377535 0.122438 0.143978 -0.00787559 0.145443 -0.00464748 -0.00657513 0.0488206 -0.0688855 0.146145 0.0503452 0.0511029 0.0644988 -0.0123059 0.0303382 -0.0524776 0.0982252 0.148663 0.160761 0.00220405 0.030903 -0.0870004 0.0220821 0.0881635 0.0156635 0.143005 0.154368 0.0837402 0.0545424 0.0179615 -0.11657 -0.108749 0.124534 0.136858 -0.0548536 0.0139371 0.0380692 -0.0722426 0.176352 0.107078 0.146766 0.117589 0.0569767 -0.0779183 0.0743216 -0.11901 -0.0651638 -0.124034 0.0974081 0.049199 0.0351486 0.146089 0.094081 0.281534 -0.00882746 0.0722208 0.242031 -0.0215729 0.00771005 0.109015 0.0636615 0.0776349 0.120946 
79 -0.082958 -0.240071 -0.0130121 -0.180135 -0.067003 0.00948258 -0.0531988 0.0489913 -0.209366 0.000888747 0.290934 0.177553 -0.157512 0.0233452 0.15496 -0.204898 -0.0746407 -0.00233468 0.253119 0.121581 -0.171605 -0.104424 -0.153022 -0.0907517 -0.214129 0.0565519 0.318657 0.24478 0.058815 0.0363869 -0.0444585 0.046498 -0.116961 0.241655 -0.00589451 0.0437919 -0.185252 -0.104497 0.0049258 -0.0198552 0.00631477 -0.0707227 -0.000706511 -0.129785 0.360222 0.35473 -0.111386 -0.14679 -0.205852 0.079754 -0.0126149 -0.0598585 0.00313203 0.038388 0.0393169 -0.120024 -0.0364184 0.0535743 0.154222 0.192914 -0.120557 0.0615538 -0.0900047 0.00640988 -0.189138 0.0301844 0.0532137 -0.213202 -0.111283 0.224335 0.244614 0.376654 -0.0103416 0.03757 -0.245712 -0.0985633 -0.0644842 -0.177868 -0.175136 -0.127914 0.0433026 0.0238118 -0.049708 0.0187181 0.0684225 0.108403 -0.0473211 -0.191975 -0.151343 -0.177434 0.0899028 0.24969 -0.089941 -0.00274131 0.0814142 0.161668 -0.130614 -0.0592523 -0.172862 0.473493 0.0571528 0.00582861 -0.126134 -0.00850314 0.0395864 0.348671 0.0202704 -0.168961 -0.104507 -0.194029 0.429054 0.0014324 -0.073553 0.165643 0.429072 0.20586 -0.148166 -0.176236 0.0275823 0.294653 
80 -0.10905 -0.130297 0.00528716 0.397947 0.0178476 -0.0526127 -0.0148942 -0.191211 -0.0794151 0.00743307 -0.0635761 -0.103865 0.0375397 -0.182209 0.120502 -0.0422311 -0.0937362 -0.207635 -0.0228158 0.0292406 -0.140102 -0.00472447 -0.0799058 0.0379923 -0.0347767 0.0822855 -0.164205 -0.0562897 0.0398596 0.0344003 0.0319299 -0.142195 -0.0912843 0.145234 -0.119458 -0.184199 -0.0311016 0.0158265 -0.0268645 -0.0148636 -0.0952904 -0.010423 -0.0578325 -0.157607 0.0276801 0.159363 -0.0443756 0.0209887 -0.0218009 -0.0499552 0.0228185 -0.0547993 -0.20229 0.0689824 0.0394709 0.0302155 0.0472363 -0.1073 -0.0185217 -0.0908955 0.0110417 -0.0826952 -0.182241 -0.108902 -0.0711338 -0.0796249 -0.0937693 -0.209509 -0.146864 -0.0111014 0.0234411 0.00422719 0.0077236 -0.0479855 -0.107278 -0.162569 -0.000650617 -0.135533 -0.153447 -0.145601 -0.142698 0.0329098 -0.0494829 0.0452187 -0.118156 -0.025497 -0.028626 -0.0686054 0.00228112 0.0232895 0.0985511 -0.14332 -0.0732381 -0.0142781 0.0229184 -0.114438 0.0208339 -0.116386 -0.157641 0.0337755 -0.199099 -0.210683 -0.0731875 -0.165672 -0.166169 0.0122049 0.0671248 -0.0572844 -0.100218 -0.171294 -0.0339741 -0.0229197 -0.100191 0.00446251 -0.0512091 -0.0764703 -0.194317 -0.197206 -0.168406 -0.0880607 
